svm_type c_svc
kernel_type rbf
gamma 0.16666666666666666
nr_class 2
total_sv 9471
rho -2.7886700480814617
label 0 1
nr_sv 9372 99
SV
1 1:0.496281 2:0.015 3:0.824561 4:0.818212 5:0.034563 6:-0.20523 
1 1:0.496281 2:0.035 3:0.947368 4:0.911126 5:0.062717 6:-0.681633 
1 1:0.496281 2:0.05 3:0.921053 4:0.944285 5:0.086906 6:-0.187606 
1 1:0.496281 2:0.055 3:0.991228 4:1 5:0.079633 6:-0.133673 
1 1:0.496281 2:0.075 3:0.903509 4:0.91323 5:0.082268 6:-0.215513 
1 1:0.496281 2:0.09 3:0.824561 4:0.870392 5:0.064215 6:0.070036 
1 1:0.496281 2:0.095 3:0.868421 4:0.889244 5:0.090868 6:-0.176115 
1 1:0.496281 2:0.11 3:0.903509 4:0.950429 5:0.077083 6:-0.199645 
1 1:0.496281 2:0.125 3:0.885965 4:0.859451 5:0.08073 6:-0.244631 
1 1:0.496281 2:0.13 3:0.868421 4:0.877293 5:0.053528 6:-0.374281 
1 1:0.496281 2:0.145 3:0.947368 4:0.901868 5:0.057547 6:-0.527263 
1 1:0.496281 2:0.15 3:0.903509 4:0.858694 5:0.063511 6:-0.425634 
1 1:0.496281 2:0.155 3:0.798246 4:0.808702 5:0.058284 6:-0.225785 
1 1:0.496281 2:0.16 3:0.903509 4:0.878303 5:0.226649 6:-0.225043 
1 1:0.496281 2:0.18 3:0.921053 4:0.910537 5:0.08286 6:-0.091415 
1 1:0.496281 2:0.185 3:0.912281 4:0.894715 5:0.07122 6:-0.214913 
1 1:0.496281 2:0.19 3:0.894737 4:0.898502 5:0.080821 6:-0.068397 
1 1:0.496281 2:0.195 3:0.903509 4:0.890927 5:0.057627 6:-0.182263 
1 1:0.496281 2:0.21 3:0.95614 4:0.88167 5:0.088918 6:-0.300216 
1 1:0.496281 2:0.225 3:0.991228 4:0.992846 5:0.213489 6:-0.176218 
1 1:0.496281 2:0.23 3:0.868421 4:0.875526 5:0.121977 6:0.021845 
1 1:0.496281 2:0.235 3:0.929825 4:0.906666 5:0.116056 6:0.125834 
1 1:0.496281 2:0.24 3:0.929825 4:0.873674 5:0.063881 6:-0.561532 
1 1:0.496281 2:0.25 3:0.991228 4:0.892947 5:0.099416 6:-0.367601 
1 1:0.496281 2:0.265 3:0.929825 4:0.93932 5:0.063411 6:-0.103061 
1 1:0.496281 2:0.27 3:0.912281 4:0.894378 5:0.067316 6:-0.277207 
1 1:0.496281 2:0.275 3:0.947368 4:0.884531 5:0.092097 6:-0.305779 
1 1:0.496281 2:0.28 3:0.798246 4:0.804158 5:0.044263 6:-0.108901 
1 1:0.496281 2:0.29 3:0.95614 4:0.970628 5:0.129949 6:0.022547 
1 1:0.496281 2:0.295 3:0.929825 4:0.891769 5:0.088716 6:-0.112068 
1 1:0.496281 2:0.3 3:0.868421 4:0.900943 5:0.320745 6:0.391859 
1 1:0.496281 2:0.305 3:0.850877 4:0.853981 5:0.270872 6:-0.058797 
1 1:0.496281 2:0.31 3:0.912281 4:0.926864 5:0.201133 6:0.354513 
1 1:0.496281 2:0.32 3:0.885965 4:0.84203 5:0.105662 6:-0.192519 
1 1:0.496281 2:0.33 3:0.833333 4:0.867783 5:0.336935 6:0.404067 
1 1:0.496281 2:0.335 3:0.780702 4:0.774533 5:0.106392 6:0.228737 
1 1:0.496281 2:0.34 3:0.868421 4:0.792964 5:0.066699 6:-0.068548 
1 1:0.496281 2:0.345 3:0.842105 4:0.87258 5:0.371589 6:0.29791 
1 1:0.496281 2:0.35 3:0.912281 4:0.857095 5:0.134125 6:0.016585 
1 1:0.496281 2:0.355 3:1 4:1 5:0.184281 6:0.075413 
1 1:0.496281 2:0.36 3:0.885965 4:0.906076 5:0.066375 6:0.015182 
1 1:0.496281 2:0.365 3:0.903509 4:0.904309 5:0.090995 6:0.197026 
1 1:0.496281 2:0.37 3:0.938596 4:0.887393 5:0.28526 6:0.208382 
1 1:0.496281 2:0.375 3:0.815789 4:0.776805 5:0.035979 6:0.02432 
1 1:0.496281 2:0.38 3:0.807018 4:0.764854 5:0.037555 6:0.017207 
1 1:0.496281 2:0.385 3:0.912281 4:0.895051 5:0.073716 6:0.039396 
1 1:0.496281 2:0.395 3:0.815789 4:0.7763 5:0.17755 6:-0.042367 
1 1:0.496281 2:0.4 3:0.798246 4:0.77184 5:0.061335 6:-0.046387 
1 1:0.496281 2:0.405 3:0.824561 4:0.850699 5:0.059207 6:0.025385 
1 1:0.496281 2:0.41 3:0.859649 4:0.853055 5:0.702563 6:0.178566 
1 1:0.496281 2:0.415 3:0.807018 4:0.767043 5:0.044449 6:-0.071987 
1 1:0.496281 2:0.425 3:0.859649 4:0.859872 5:0.140529 6:0.070413 
1 1:0.496281 2:0.43 3:0.885965 4:0.849857 5:0.084242 6:-0.119785 
1 1:0.496281 2:0.44 3:0.938596 4:0.854233 5:0.120839 6:-0.15287 
1 1:0.496281 2:0.445 3:0.912281 4:0.866773 5:0.048057 6:-0.440577 
1 1:0.496281 2:0.45 3:0.903509 4:0.901784 5:0.109542 6:-0.140105 
1 1:0.496281 2:0.455 3:0.833333 4:0.820148 5:0.090232 6:0.226378 
1 1:0.496281 2:0.465 3:0.868421 4:0.827218 5:0.062838 6:-0.130356 
1 1:0.496281 2:0.47 3:0.815789 4:0.839 5:0.048637 6:-0.038904 
1 1:0.496281 2:0.475 3:0.894737 4:0.874348 5:0.175959 6:0.305938 
1 1:0.496281 2:0.485 3:0.833333 4:0.863912 5:0.113955 6:0.159812 
1 1:0.496281 2:0.49 3:0.850877 4:0.872496 5:0.053797 6:-0.058312 
1 1:0.496281 2:0.495 3:0.719298 4:0.735146 5:0.047277 6:0.039764 
1 1:0.496281 2:0.505 3:0.833333 4:0.825029 5:0.111405 6:0.104038 
1 1:0.496281 2:0.51 3:0.77193 4:0.766117 5:0.054584 6:0.230969 
1 1:0.496281 2:0.515 3:0.929825 4:0.960781 5:0.170868 6:0.282484 
1 1:0.496281 2:0.52 3:0.850877 4:0.82301 5:0.317907 6:0.200523 
1 1:0.496281 2:0.525 3:0.815789 4:0.747012 5:0.051724 6:-0.137494 
1 1:0.496281 2:0.53 3:0.824561 4:0.827638 5:0.202761 6:0.438162 
1 1:0.496281 2:0.535 3:0.938596 4:0.990321 5:0.211035 6:0.393371 
1 1:0.496281 2:0.545 3:0.929825 4:0.902457 5:0.248326 6:0.170174 
1 1:0.496281 2:0.55 3:0.95614 4:0.947484 5:0.144885 6:0.179 
1 1:0.496281 2:0.555 3:0.894737 4:0.818886 5:0.103739 6:-0.096465 
1 1:0.496281 2:0.56 3:0.798246 4:0.8034 5:0.192326 6:0.306366 
1 1:0.496281 2:0.565 3:0.912281 4:0.900438 5:0.146227 6:0.275888 
1 1:0.496281 2:0.57 3:0.964912 4:0.96987 5:0.161847 6:0.285923 
1 1:0.496281 2:0.575 3:0.798246 4:0.802306 5:0.027801 6:-0.25463 
1 1:0.496281 2:0.58 3:0.921053 4:0.887645 5:0.140102 6:0.149248 
1 1:0.496281 2:0.585 3:0.894737 4:0.874264 5:0.210216 6:0.49787 
1 1:0.496281 2:0.59 3:0.877193 4:0.837149 5:0.107132 6:0.22692 
1 1:0.496281 2:0.595 3:0.912281 4:0.881165 5:0.394361 6:0.293893 
1 1:0.496281 2:0.6 3:0.798246 4:0.815772 5:0.113548 6:0.302922 
1 1:0.496281 2:0.605 3:0.912281 4:0.867362 5:0.163911 6:-0.171613 
1 1:0.496281 2:0.61 3:0.885965 4:0.83799 5:0.04403 6:-0.238419 
1 1:0.496281 2:0.615 3:0.807018 4:0.780256 5:0.173037 6:0.101563 
1 1:0.496281 2:0.62 3:0.789474 4:0.803148 5:0.101508 6:0.151605 
1 1:0.496281 2:0.625 3:0.815789 4:0.764265 5:0.176715 6:-0.015257 
1 1:0.496281 2:0.63 3:0.850877 4:0.823851 5:0.064722 6:0.084101 
1 1:0.496281 2:0.635 3:0.763158 4:0.758458 5:0.165919 6:0.282316 
1 1:0.496281 2:0.64 3:0.824561 4:0.789766 5:0.189641 6:0.198711 
1 1:0.496281 2:0.645 3:0.815789 4:0.81291 5:0.390628 6:0.075822 
1 1:0.496281 2:0.65 3:0.885965 4:0.877125 5:0.376663 6:0.439882 
1 1:0.496281 2:0.655 3:0.833333 4:0.829153 5:0.093942 6:0.1171 
1 1:0.496281 2:0.66 3:0.921053 4:0.859115 5:0.096349 6:-0.121959 
1 1:0.496281 2:0.665 3:0.894737 4:0.890254 5:0.227838 6:0.298381 
1 1:0.496281 2:0.67 3:0.833333 4:0.818886 5:0.147961 6:0.311818 
1 1:0.496281 2:0.675 3:0.894737 4:0.836055 5:0.404824 6:0.14551 
1 1:0.496281 2:0.68 3:0.77193 4:0.797004 5:0.053528 6:0.092817 
1 1:0.496281 2:0.685 3:0.894737 4:0.907171 5:0.10268 6:0.129538 
1 1:0.496281 2:0.69 3:0.859649 4:0.802643 5:0.146783 6:-0.176612 
1 1:0.496281 2:0.695 3:0.868421 4:0.84102 5:0.249991 6:0.419584 
1 1:0.496281 2:0.7 3:0.885965 4:0.882175 5:0.107199 6:0.365823 
1 1:0.496281 2:0.705 3:0.684211 4:0.629355 5:0.095965 6:-0.064898 
1 1:0.496281 2:0.71 3:0.903509 4:0.852803 5:0.201103 6:0.22149 
1 1:0.496281 2:0.715 3:0.824561 4:0.786568 5:0.219817 6:0.177317 
1 1:0.496281 2:0.72 3:0.877193 4:0.805083 5:0.125933 6:0.058408 
1 1:0.496281 2:0.725 3:0.859649 4:0.843882 5:0.360999 6:0.486497 
1 1:0.496281 2:0.735 3:0.824561 4:0.833025 5:0.101178 6:0.32594 
1 1:0.496281 2:0.74 3:0.938596 4:0.95085 5:0.253784 6:0.611195 
1 1:0.496281 2:0.745 3:0.894737 4:0.886214 5:0.16431 6:0.445769 
1 1:0.496281 2:0.75 3:0.885965 4:0.867194 5:0.761176 6:0.660767 
1 1:0.496281 2:0.755 3:0.877193 4:0.87864 5:0.310499 6:0.708789 
1 1:0.496281 2:0.765 3:0.859649 4:0.824861 5:0.156746 6:0.292701 
1 1:0.496281 2:0.77 3:0.780702 4:0.78985 5:0.093777 6:0.275502 
1 1:0.496281 2:0.775 3:0.894737 4:0.861724 5:0.19135 6:0.284179 
1 1:0.496281 2:0.78 3:0.842105 4:0.821747 5:0.271732 6:0.51854 
1 1:0.496281 2:0.785 3:0.912281 4:0.876704 5:0.223992 6:0.133592 
1 1:0.496281 2:0.79 3:0.885965 4:0.854486 5:0.117384 6:0.375423 
1 1:0.496281 2:0.795 3:0.912281 4:0.880323 5:0.076114 6:0.352698 
1 1:0.496281 2:0.8 3:0.921053 4:0.924592 5:0.202777 6:0.534497 
1 1:0.496281 2:0.805 3:0.815789 4:0.74878 5:0.053469 6:-0.180267 
1 1:0.496281 2:0.81 3:0.973684 4:0.938563 5:0.418888 6:0.714295 
1 1:0.496281 2:0.815 3:0.807018 4:0.784296 5:0.117085 6:0.09023 
1 1:0.496281 2:0.82 3:0.912281 4:0.852803 5:0.190319 6:0.069421 
1 1:0.496281 2:0.825 3:0.912281 4:0.883353 5:0.223364 6:0.296409 
1 1:0.496281 2:0.83 3:0.885965 4:0.891685 5:0.784308 6:0.639901 
1 1:0.496281 2:0.835 3:1 4:0.921983 5:0.298137 6:0.234585 
1 1:0.496281 2:0.84 3:0.885965 4:0.867867 5:0.275336 6:0.568512 
1 1:0.496281 2:0.845 3:0.842105 4:0.798014 5:0.7312 6:0.379514 
1 1:0.496281 2:0.85 3:0.877193 4:0.833951 5:0.469668 6:0.556364 
1 1:0.496281 2:0.86 3:0.921053 4:0.901784 5:0.199937 6:0.440897 
1 1:0.496281 2:0.865 3:0.877193 4:0.894799 5:0.397023 6:0.680826 
1 1:0.496281 2:0.87 3:0.868421 4:0.882764 5:0.802242 6:0.877758 
1 1:0.496281 2:0.875 3:0.842105 4:0.795152 5:0.162674 6:0.216933 
1 1:0.496281 2:0.88 3:0.877193 4:0.863659 5:0.475384 6:0.700827 
1 1:0.496281 2:0.885 3:0.868421 4:0.816613 5:0.085035 6:-0.006849 
1 1:0.496281 2:0.89 3:0.833333 4:0.810385 5:0.597839 6:0.31247 
1 1:0.496281 2:0.895 3:0.903509 4:0.867026 5:0.199072 6:0.311086 
1 1:0.496281 2:0.9 3:0.850877 4:0.789429 5:0.151854 6:0.508826 
1 1:0.496281 2:0.905 3:0.842105 4:0.782444 5:0.058093 6:0.201541 
1 1:0.496281 2:0.91 3:0.964912 4:0.941592 5:0.367277 6:0.496936 
1 1:0.496281 2:0.92 3:0.947368 4:0.945464 5:0.376375 6:0.633896 
1 1:0.496281 2:0.925 3:0.842105 4:0.84405 5:0.148455 6:0.373009 
1 1:0.496281 2:0.93 3:0.921053 4:0.889918 5:0.203676 6:0.634198 
1 1:0.496281 2:0.935 3:0.921053 4:0.885794 5:0.339867 6:0.794609 
1 1:0.496281 2:0.94 3:0.815789 4:0.796331 5:0.209761 6:0.34623 
1 1:0.496281 2:0.945 3:0.745614 4:0.736324 5:0.078237 6:0.314867 
1 1:0.496281 2:0.95 3:0.921053 4:0.884784 5:0.365863 6:0.596224 
1 1:0.496281 2:0.955 3:0.842105 4:0.833951 5:0.230068 6:0.726251 
1 1:0.496281 2:0.96 3:0.842105 4:0.803232 5:0.429525 6:0.44535 
1 1:0.496281 2:0.97 3:0.72807 4:0.680525 5:0.199759 6:0.239365 
1 1:0.496281 2:0.975 3:0.894737 4:0.893873 5:0.782494 6:0.80994 
1 1:0.496281 2:0.98 3:0.885965 4:0.926864 5:0.152444 6:0.489388 
1 1:0.496281 2:0.985 3:0.815789 4:0.766117 5:0.089996 6:0.25982 
1 1:0.496281 2:1 3:0.789474 4:0.766706 5:0.083912 6:0.416548 
1 1:0.496281 2:0.005 3:0.903509 4:0.939572 5:0.153815 6:-0.043418 
1 1:0.657739 2:0.01 3:0.911565 4:0.864379 5:0.058491 6:-0.38911 
1 1:0.657739 2:0.015 3:0.897959 4:0.885766 5:0.094057 6:-0.377091 
1 1:0.657739 2:0.02 3:0.897959 4:0.857143 5:0.341802 6:-0.449486 
1 1:0.657739 2:0.025 3:0.877551 4:0.868967 5:0.106289 6:-0.153091 
1 1:0.657739 2:0.03 3:0.884354 4:0.838276 5:0.246521 6:-0.393452 
1 1:0.657739 2:0.035 3:0.877551 4:0.793694 5:0.045064 6:-0.786191 
1 1:0.657739 2:0.04 3:0.911565 4:0.87601 5:0.087861 6:-0.256901 
1 1:0.657739 2:0.045 3:0.911565 4:0.872714 5:0.122191 6:-0.198732 
1 1:0.657739 2:0.05 3:0.993197 4:1 5:0.711676 6:0.128416 
1 1:0.657739 2:0.055 3:0.938776 4:0.899011 5:0.239218 6:-0.436647 
1 1:0.657739 2:0.06 3:0.904762 4:0.852491 5:0.049832 6:-0.477219 
1 1:0.657739 2:0.065 3:0.891156 4:0.855721 5:0.055695 6:-0.384513 
1 1:0.657739 2:0.07 3:0.911565 4:0.871293 5:0.084836 6:-0.341572 
1 1:0.657739 2:0.075 3:0.843537 4:0.810299 5:0.047123 6:-0.412936 
1 1:0.657739 2:0.08 3:0.904762 4:0.913226 5:0.065081 6:-0.299282 
1 1:0.657739 2:0.085 3:0.891156 4:0.792854 5:0.169405 6:-0.561019 
1 1:0.657739 2:0.09 3:0.918367 4:0.911482 5:0.161738 6:-0.077407 
1 1:0.657739 2:0.095 3:0.877551 4:0.827874 5:0.064511 6:-0.341615 
1 1:0.657739 2:0.1 3:0.931973 4:0.93836 5:0.185003 6:0.026466 
1 1:0.657739 2:0.105 3:0.884354 4:0.823545 5:0.071908 6:-0.298347 
1 1:0.657739 2:0.11 3:0.911565 4:0.90334 5:0.158363 6:-0.058064 
1 1:0.657739 2:0.115 3:0.870748 4:0.842347 5:0.065498 6:-0.357001 
1 1:0.657739 2:0.12 3:0.931973 4:0.860373 5:0.20868 6:-0.376454 
1 1:0.657739 2:0.125 3:0.904762 4:0.814693 5:0.080646 6:-0.387303 
1 1:0.657739 2:0.13 3:0.92517 4:0.837178 5:0.069253 6:-0.615298 
1 1:0.657739 2:0.135 3:0.884354 4:0.847128 5:0.081643 6:-0.520361 
1 1:0.657739 2:0.14 3:0.877551 4:0.830781 5:0.08091 6:-0.224481 
1 1:0.657739 2:0.145 3:0.979592 4:0.946307 5:0.129181 6:-0.309315 
1 1:0.657739 2:0.15 3:0.891156 4:0.878659 5:0.123086 6:-0.090371 
1 1:0.657739 2:0.155 3:0.870748 4:0.851715 5:0.044102 6:-0.278222 
1 1:0.657739 2:0.16 3:0.931973 4:0.916263 5:0.1752 6:-0.026188 
1 1:0.657739 2:0.165 3:0.863946 4:0.809524 5:0.051308 6:-0.218487 
1 1:0.657739 2:0.17 3:0.986395 4:0.900885 5:0.135767 6:-0.518118 
1 1:0.657739 2:0.18 3:0.870748 4:0.849389 5:0.125977 6:0.060683 
1 1:0.657739 2:0.185 3:0.85034 4:0.846417 5:0.10391 6:0.047652 
1 1:0.657739 2:0.19 3:0.877551 4:0.834141 5:0.045499 6:-0.276462 
1 1:0.657739 2:0.195 3:0.931973 4:0.912709 5:0.1814 6:0.085034 
1 1:0.657739 2:0.2 3:0.877551 4:0.825677 5:0.125554 6:-0.307706 
1 1:0.657739 2:0.205 3:0.938776 4:0.881049 5:0.168324 6:-0.541496 
1 1:0.657739 2:0.21 3:0.85034 4:0.813142 5:0.127269 6:-0.02664 
1 1:0.657739 2:0.215 3:0.904762 4:0.900821 5:0.170345 6:-0.059114 
1 1:0.657739 2:0.22 3:0.92517 4:0.888221 5:0.103941 6:-0.319167 
1 1:0.657739 2:0.225 3:0.918367 4:0.886994 5:0.15345 6:-0.004644 
1 1:0.657739 2:0.23 3:0.85034 4:0.822705 5:0.082293 6:-0.270414 
1 1:0.657739 2:0.235 3:0.911565 4:0.845707 5:0.086887 6:-0.270413 
1 1:0.657739 2:0.24 3:0.918367 4:0.895393 5:0.134036 6:-0.098005 
1 1:0.657739 2:0.245 3:0.863946 4:0.818828 5:0.036617 6:-0.411334 
1 1:0.657739 2:0.25 3:0.918367 4:0.897525 5:0.201004 6:-0.132181 
1 1:0.657739 2:0.255 3:0.843537 4:0.82432 5:0.134706 6:0.08149 
1 1:0.657739 2:0.26 3:0.870748 4:0.850746 5:0.086704 6:-0.124881 
1 1:0.657739 2:0.265 3:0.911565 4:0.857143 5:0.229696 6:-0.245159 
1 1:0.657739 2:0.27 3:0.952381 4:0.905602 5:0.143444 6:-0.303977 
1 1:0.657739 2:0.275 3:0.897959 4:0.857918 5:0.274823 6:-0.127617 
1 1:0.657739 2:0.28 3:0.945578 4:0.843897 5:0.087941 6:-0.445589 
1 1:0.657739 2:0.285 3:0.931973 4:0.891064 5:0.17964 6:0.082864 
1 1:0.657739 2:0.29 3:0.857143 4:0.807585 5:0.044392 6:-0.445133 
1 1:0.657739 2:0.295 3:0.884354 4:0.860244 5:0.061351 6:-0.195346 
1 1:0.657739 2:0.3 3:0.863946 4:0.851005 5:0.046027 6:-0.36001 
1 1:0.657739 2:0.305 3:0.897959 4:0.829166 5:0.057384 6:-0.639169 
1 1:0.657739 2:0.31 3:0.891156 4:0.824643 5:0.093661 6:-0.18509 
1 1:0.657739 2:0.315 3:1 4:0.959101 5:0.239594 6:0.13043 
1 1:0.657739 2:0.32 3:0.877551 4:0.835046 5:0.070922 6:-0.355677 
1 1:0.657739 2:0.325 3:0.863946 4:0.80429 5:0.085817 6:-0.252625 
1 1:0.657739 2:0.33 3:0.979592 4:0.878142 5:0.119093 6:-0.401042 
1 1:0.657739 2:0.335 3:0.857143 4:0.824643 5:0.113423 6:0.039276 
1 1:0.657739 2:0.34 3:0.843537 4:0.816437 5:0.073541 6:-0.069931 
1 1:0.657739 2:0.345 3:0.857143 4:0.837888 5:0.092085 6:-0.002179 
1 1:0.657739 2:0.35 3:0.904762 4:0.870711 5:0.099145 6:-0.195129 
1 1:0.657739 2:0.355 3:0.782313 4:0.768301 5:0.07658 6:0.199167 
1 1:0.657739 2:0.36 3:0.965986 4:0.944821 5:0.228589 6:0.126848 
1 1:0.657739 2:0.365 3:0.965986 4:0.902371 5:0.153406 6:-0.4295 
1 1:0.657739 2:0.37 3:0.952381 4:0.89087 5:0.215962 6:-0.279653 
1 1:0.657739 2:0.375 3:0.870748 4:0.757253 5:0.05309 6:-0.456565 
1 1:0.657739 2:0.38 3:0.897959 4:0.871874 5:0.199917 6:0.141647 
1 1:0.657739 2:0.385 3:0.85034 4:0.783679 5:0.071644 6:-0.276289 
1 1:0.657739 2:0.39 3:0.85034 4:0.808296 5:0.061091 6:-0.230135 
1 1:0.657739 2:0.395 3:0.959184 4:0.939975 5:0.364461 6:0.215951 
1 1:0.657739 2:0.4 3:0.911565 4:0.885314 5:0.132139 6:0.015001 
1 1:0.657739 2:0.405 3:0.911565 4:0.905214 5:0.122486 6:0.11056 
1 1:0.657739 2:0.41 3:0.884354 4:0.846482 5:0.480205 6:0.045972 
1 1:0.657739 2:0.415 3:0.863946 4:0.837049 5:0.256567 6:0.083461 
1 1:0.657739 2:0.42 3:0.802721 4:0.754991 5:0.107678 6:-0.094228 
1 1:0.657739 2:0.425 3:0.863946 4:0.842217 5:0.207449 6:0.221188 
1 1:0.657739 2:0.43 3:0.92517 4:0.884926 5:0.617537 6:0.080506 
1 1:0.657739 2:0.435 3:0.965986 4:0.95167 5:0.307451 6:0.283303 
1 1:0.657739 2:0.44 3:0.904762 4:0.906829 5:0.21872 6:0.385141 
1 1:0.657739 2:0.445 3:0.836735 4:0.788654 5:0.079117 6:-0.127434 
1 1:0.657739 2:0.45 3:0.870748 4:0.837695 5:0.222531 6:0.163624 
1 1:0.657739 2:0.455 3:0.986395 4:0.932028 5:0.28087 6:0.172363 
1 1:0.657739 2:0.46 3:0.993197 4:0.955676 5:0.434187 6:0.46687 
1 1:0.657739 2:0.465 3:0.938776 4:0.849196 5:0.09064 6:-0.457009 
1 1:0.657739 2:0.47 3:0.85034 4:0.776442 5:0.057636 6:-0.399081 
1 1:0.657739 2:0.475 3:0.829932 4:0.812367 5:0.052984 6:-0.20555 
1 1:0.657739 2:0.48 3:0.959184 4:0.927441 5:0.351001 6:0.197263 
1 1:0.657739 2:0.485 3:0.891156 4:0.862183 5:0.125805 6:0.021417 
1 1:0.657739 2:0.49 3:0.829932 4:0.819086 5:0.133371 6:0.17731 
1 1:0.657739 2:0.495 3:0.911565 4:0.868644 5:0.245126 6:0.200982 
1 1:0.657739 2:0.5 3:0.92517 4:0.871034 5:0.420718 6:-0.040932 
1 1:0.657739 2:0.505 3:0.836735 4:0.798992 5:0.071995 6:-0.062679 
1 1:0.657739 2:0.51 3:0.897959 4:0.865607 5:0.115998 6:0.025489 
1 1:0.657739 2:0.515 3:0.877551 4:0.842024 5:0.121812 6:0.189362 
1 1:0.657739 2:0.52 3:0.863946 4:0.793952 5:0.076311 6:-0.206315 
1 1:0.657739 2:0.525 3:0.863946 4:0.828197 5:0.198876 6:-0.036509 
1 1:0.657739 2:0.53 3:0.829932 4:0.724236 5:0.049749 6:-0.376918 
1 1:0.657739 2:0.535 3:0.931973 4:0.857724 5:0.254929 6:-0.060376 
1 1:0.657739 2:0.54 3:0.931973 4:0.900045 5:0.607879 6:-0.008088 
1 1:0.657739 2:0.545 3:0.884354 4:0.821865 5:0.476053 6:0.135704 
1 1:0.657739 2:0.55 3:0.857143 4:0.844673 5:0.094703 6:0.211386 
1 1:0.657739 2:0.555 3:0.816327 4:0.775021 5:0.095382 6:0.122952 
1 1:0.657739 2:0.56 3:0.85034 4:0.798604 5:0.090802 6:0.121525 
1 1:0.657739 2:0.565 3:0.809524 4:0.802869 5:0.076584 6:0.088614 
1 1:0.657739 2:0.57 3:0.891156 4:0.874717 5:0.245865 6:0.18505 
1 1:0.657739 2:0.575 3:0.836735 4:0.863475 5:0.092007 6:0.076229 
1 1:0.657739 2:0.58 3:0.918367 4:0.881889 5:0.091849 6:0.177615 
1 1:0.657739 2:0.585 3:0.857143 4:0.806745 5:0.081565 6:0.029582 
1 1:0.657739 2:0.59 3:0.911565 4:0.840667 5:0.141113 6:0.020912 
1 1:0.657739 2:0.595 3:0.92517 4:0.8742 5:0.091643 6:-0.032022 
1 1:0.657739 2:0.6 3:0.904762 4:0.878659 5:0.296405 6:0.306089 
1 1:0.657739 2:0.605 3:0.904762 4:0.849325 5:0.663662 6:0.268458 
1 1:0.657739 2:0.61 3:0.891156 4:0.822575 5:0.115923 6:0.080671 
1 1:0.657739 2:0.615 3:0.795918 4:0.783744 5:0.153047 6:0.363256 
1 1:0.657739 2:0.625 3:0.863946 4:0.880468 5:0.477751 6:0.700771 
1 1:0.657739 2:0.63 3:0.809524 4:0.797635 5:0.127103 6:0.146629 
1 1:0.657739 2:0.635 3:0.918367 4:0.878206 5:0.111794 6:0.054011 
1 1:0.657739 2:0.64 3:0.897959 4:0.853525 5:0.096378 6:-0.005837 
1 1:0.657739 2:0.645 3:0.918367 4:0.874523 5:0.338226 6:0.062034 
1 1:0.657739 2:0.65 3:0.904762 4:0.870905 5:0.086179 6:-0.00768 
1 1:0.657739 2:0.655 3:0.823129 4:0.758093 5:0.054105 6:-0.120161 
1 1:0.657739 2:0.66 3:0.870748 4:0.821412 5:0.222189 6:0.244188 
1 1:0.657739 2:0.665 3:0.911565 4:0.885249 5:0.460136 6:0.43387 
1 1:0.657739 2:0.67 3:0.85034 4:0.782258 5:0.106675 6:0.013903 
1 1:0.657739 2:0.675 3:0.891156 4:0.836402 5:0.081314 6:-0.153512 
1 1:0.657739 2:0.68 3:0.857143 4:0.755637 5:0.07486 6:-0.190621 
1 1:0.657739 2:0.685 3:0.761905 4:0.698585 5:0.085965 6:-0.142114 
1 1:0.657739 2:0.69 3:0.952381 4:0.930994 5:0.422344 6:0.457779 
1 1:0.657739 2:0.695 3:0.931973 4:0.888286 5:0.182518 6:0.291275 
1 1:0.657739 2:0.705 3:0.863946 4:0.837178 5:0.232625 6:0.243965 
1 1:0.657739 2:0.71 3:0.918367 4:0.84351 5:0.139664 6:-0.209672 
1 1:0.657739 2:0.715 3:0.877551 4:0.798863 5:0.120892 6:0.136805 
1 1:0.657739 2:0.72 3:0.965986 4:0.910706 5:0.345788 6:0.491037 
1 1:0.657739 2:0.725 3:0.857143 4:0.817794 5:0.222011 6:-0.038034 
1 1:0.657739 2:0.735 3:0.945578 4:0.904245 5:0.105366 6:0.271195 
1 1:0.657739 2:0.745 3:0.884354 4:0.815662 5:0.146033 6:0.133743 
1 1:0.657739 2:0.75 3:0.877551 4:0.885314 5:0.130418 6:0.21298 
1 1:0.657739 2:0.76 3:0.891156 4:0.868579 5:0.849569 6:0.632831 
1 1:0.657739 2:0.765 3:0.884354 4:0.844285 5:0.13593 6:0.218468 
1 1:0.657739 2:0.77 3:0.870748 4:0.885572 5:0.394113 6:0.770099 
1 1:0.657739 2:0.78 3:0.884354 4:0.834076 5:0.115725 6:0.220285 
1 1:0.657739 2:0.785 3:0.877551 4:0.775473 5:0.104055 6:0.049598 
1 1:0.657739 2:0.79 3:0.891156 4:0.890806 5:0.503887 6:0.539078 
1 1:0.657739 2:0.795 3:0.870748 4:0.829166 5:0.132466 6:0.128766 
1 1:0.657739 2:0.8 3:0.863946 4:0.816308 5:0.146235 6:0.247293 
1 1:0.657739 2:0.81 3:0.904762 4:0.849519 5:0.134445 6:-0.004741 
1 1:0.657739 2:0.815 3:0.863946 4:0.82936 5:0.141036 6:0.197014 
1 1:0.657739 2:0.825 3:0.816327 4:0.769271 5:0.069632 6:0.11092 
1 1:0.657739 2:0.83 3:0.891156 4:0.839116 5:0.121505 6:0.397733 
1 1:0.657739 2:0.835 3:0.918367 4:0.914518 5:0.395799 6:0.515614 
1 1:0.657739 2:0.845 3:0.85034 4:0.844996 5:0.271501 6:0.492455 
1 1:0.657739 2:0.85 3:0.877551 4:0.83259 5:0.362822 6:0.378065 
1 1:0.657739 2:0.855 3:0.85034 4:0.833818 5:0.706234 6:0.390106 
1 1:0.657739 2:0.86 3:0.823129 4:0.802029 5:0.087566 6:0.146451 
1 1:0.657739 2:0.865 3:0.829932 4:0.785036 5:0.105324 6:0.402635 
1 1:0.657739 2:0.87 3:0.829932 4:0.783808 5:0.090405 6:0.081361 
1 1:0.657739 2:0.88 3:0.904762 4:0.828067 5:0.130087 6:0.145005 
1 1:0.657739 2:0.885 3:0.863946 4:0.849325 5:0.441241 6:0.450065 
1 1:0.657739 2:0.89 3:0.843537 4:0.786005 5:0.063808 6:-0.014137 
1 1:0.657739 2:0.895 3:0.911565 4:0.87601 5:0.457415 6:0.404475 
1 1:0.657739 2:0.905 3:0.829932 4:0.82684 5:0.733177 6:0.383263 
1 1:0.657739 2:0.91 3:0.884354 4:0.814434 5:0.129279 6:0.216248 
1 1:0.657739 2:0.915 3:0.843537 4:0.774116 5:0.065016 6:0.071179 
1 1:0.657739 2:0.92 3:0.931973 4:0.893907 5:0.272093 6:0.369272 
1 1:0.657739 2:0.925 3:0.809524 4:0.777735 5:0.145432 6:0.482462 
1 1:0.657739 2:0.93 3:0.877551 4:0.847193 5:0.21201 6:0.305281 
1 1:0.657739 2:0.935 3:0.92517 4:0.908122 5:0.51362 6:0.674417 
1 1:0.657739 2:0.94 3:0.836735 4:0.850488 5:0.286722 6:0.514653 
1 1:0.657739 2:0.945 3:0.863946 4:0.808425 5:0.15046 6:0.309761 
1 1:0.657739 2:0.95 3:0.911565 4:0.890289 5:0.902616 6:0.560496 
1 1:0.657739 2:0.955 3:0.857143 4:0.804096 5:0.71967 6:0.511792 
1 1:0.657739 2:0.96 3:0.918367 4:0.893132 5:0.194973 6:0.305243 
1 1:0.657739 2:0.965 3:0.884354 4:0.850359 5:0.209929 6:0.342401 
1 1:0.657739 2:0.97 3:0.918367 4:0.907993 5:0.646886 6:0.733499 
1 1:0.657739 2:0.975 3:0.884354 4:0.84099 5:0.306601 6:0.368955 
1 1:0.657739 2:0.985 3:0.965986 4:0.916586 5:1 6:0.750266 
1 1:0.657739 2:0.99 3:0.884354 4:0.846223 5:0.305585 6:0.675048 
1 1:0.657739 2:1 3:0.829932 4:0.818634 5:0.683222 6:0.662439 
1 1:0.657739 2:0.005 3:0.92517 4:0.886735 5:0.149993 6:-0.131186 
1 1:0.749198 2:0.01 3:0.884146 4:0.861962 5:0.032906 6:-0.597295 
1 1:0.749198 2:0.015 3:0.896341 4:0.883993 5:0.060468 6:-0.472977 
1 1:0.749198 2:0.02 3:0.911585 4:0.891137 5:0.067469 6:-0.439952 
1 1:0.749198 2:0.025 3:0.859756 4:0.822643 5:0.026719 6:-0.64524 
1 1:0.749198 2:0.03 3:0.890244 4:0.899241 5:0.052166 6:-0.317642 
1 1:0.749198 2:0.035 3:0.926829 4:0.946064 5:0.081236 6:-0.047813 
1 1:0.749198 2:0.04 3:0.948171 4:0.952907 5:0.224747 6:-0.564952 
1 1:0.749198 2:0.045 3:0.881098 4:0.89807 5:0.045127 6:-0.638411 
1 1:0.749198 2:0.05 3:0.853659 4:0.848546 5:0.022306 6:-0.58364 
1 1:0.749198 2:0.055 3:0.920732 4:0.903143 5:0.059324 6:-0.570863 
1 1:0.749198 2:0.06 3:0.92378 4:0.921001 5:0.455443 6:-0.192761 
1 1:0.749198 2:0.065 3:0.868902 4:0.858451 5:0.036599 6:-0.454512 
1 1:0.749198 2:0.07 3:0.905488 4:0.900591 5:0.041579 6:-0.433293 
1 1:0.749198 2:0.075 3:0.865854 4:0.864514 5:0.046744 6:-0.511375 
1 1:0.749198 2:0.08 3:0.942073 4:0.936009 5:0.202999 6:-0.316975 
1 1:0.749198 2:0.085 3:0.972561 4:0.956809 5:0.154263 6:-0.32183 
1 1:0.749198 2:0.09 3:0.948171 4:0.945433 5:0.185984 6:-0.177933 
1 1:0.749198 2:0.095 3:0.908537 4:0.902932 5:0.073848 6:-0.572601 
1 1:0.749198 2:0.1 3:0.929878 4:0.927004 5:0.10414 6:-0.34147 
1 1:0.749198 2:0.105 3:0.911585 4:0.940031 5:0.397947 6:0.39828 
1 1:0.749198 2:0.11 3:0.868902 4:0.866104 5:0.043861 6:-0.50365 
1 1:0.749198 2:0.115 3:0.914634 4:0.889096 5:0.033377 6:-0.663441 
1 1:0.749198 2:0.12 3:0.881098 4:0.867575 5:0.095701 6:-0.450553 
1 1:0.749198 2:0.125 3:0.92378 4:0.927785 5:0.126318 6:-0.153033 
1 1:0.749198 2:0.13 3:0.89939 4:0.914938 5:0.0583 6:-0.346665 
1 1:0.749198 2:0.135 3:0.926829 4:0.922202 5:0.290942 6:-0.452267 
1 1:0.749198 2:0.14 3:0.920732 4:0.906414 5:0.150966 6:-0.416732 
1 1:0.749198 2:0.145 3:0.911585 4:0.903803 5:0.100881 6:-0.180308 
1 1:0.749198 2:0.15 3:0.878049 4:0.851007 5:0.045542 6:-0.382485 
1 1:0.749198 2:0.155 3:0.884146 4:0.87775 5:0.092423 6:-0.255056 
1 1:0.749198 2:0.16 3:0.939024 4:0.925383 5:0.245212 6:-0.464467 
1 1:0.749198 2:0.165 3:0.911585 4:0.896899 5:0.053757 6:-0.482565 
1 1:0.749198 2:0.17 3:0.890244 4:0.885944 5:0.049637 6:-0.457388 
1 1:0.749198 2:0.175 3:0.905488 4:0.896059 5:0.095808 6:-0.494378 
1 1:0.749198 2:0.18 3:0.948171 4:0.93907 5:0.150858 6:-0.128825 
1 1:0.749198 2:0.185 3:0.929878 4:0.93877 5:0.119943 6:-0.126557 
1 1:0.749198 2:0.19 3:0.905488 4:0.920461 5:0.10188 6:0.059042 
1 1:0.749198 2:0.195 3:0.926829 4:0.926734 5:0.107238 6:-0.185606 
1 1:0.749198 2:0.2 3:0.887195 4:0.879611 5:0.068521 6:-0.33941 
1 1:0.749198 2:0.205 3:0.911585 4:0.894678 5:0.046231 6:-0.722073 
1 1:0.749198 2:0.21 3:0.942073 4:0.942072 5:0.584176 6:-0.053908 
1 1:0.749198 2:0.215 3:0.89939 4:0.899421 5:0.0923 6:0.167902 
1 1:0.749198 2:0.22 3:0.939024 4:0.921452 5:0.109876 6:-0.321818 
1 1:0.749198 2:0.225 3:0.917683 4:0.882432 5:0.053795 6:-0.628893 
1 1:0.749198 2:0.23 3:0.929878 4:0.891737 5:0.076203 6:-0.577036 
1 1:0.749198 2:0.235 3:0.902439 4:0.89714 5:0.066159 6:-0.361876 
1 1:0.749198 2:0.245 3:0.911585 4:0.929105 5:0.108831 6:0.112476 
1 1:0.749198 2:0.25 3:0.914634 4:0.916829 5:0.11445 6:-0.079749 
1 1:0.749198 2:0.255 3:0.911585 4:0.904493 5:0.058292 6:-0.338641 
1 1:0.749198 2:0.26 3:0.942073 4:0.945883 5:0.082105 6:-0.21963 
1 1:0.749198 2:0.265 3:0.865854 4:0.845304 5:0.037059 6:-0.14735 
1 1:0.749198 2:0.27 3:0.896341 4:0.896689 5:0.06615 6:-0.520537 
1 1:0.749198 2:0.275 3:0.893293 4:0.893928 5:0.119229 6:0.357818 
1 1:0.749198 2:0.28 3:0.911585 4:0.923913 5:0.08319 6:-0.364605 
1 1:0.749198 2:0.285 3:0.908537 4:0.903443 5:0.091213 6:-0.181244 
1 1:0.749198 2:0.29 3:0.966463 4:0.964313 5:0.303561 6:0.120961 
1 1:0.749198 2:0.295 3:0.917683 4:0.900231 5:0.184236 6:-0.20164 
1 1:0.749198 2:0.3 3:0.908537 4:0.910796 5:0.160169 6:-0.013595 
1 1:0.749198 2:0.305 3:0.905488 4:0.893838 5:0.133116 6:-0.296722 
1 1:0.749198 2:0.31 3:0.920732 4:0.899271 5:0.056439 6:-0.371317 
1 1:0.749198 2:0.315 3:0.89939 4:0.87694 5:0.047853 6:-0.491059 
1 1:0.749198 2:0.32 3:0.896341 4:0.874569 5:0.06462 6:-0.32211 
1 1:0.749198 2:0.325 3:0.905488 4:0.913528 5:0.088116 6:0.116296 
1 1:0.749198 2:0.33 3:0.926829 4:0.935348 5:0.158291 6:0.30419 
1 1:0.749198 2:0.335 3:0.890244 4:0.886574 5:0.096896 6:0.372355 
1 1:0.749198 2:0.34 3:0.932927 4:0.942942 5:0.164486 6:0.226185 
1 1:0.749198 2:0.345 3:0.911585 4:0.933998 5:0.069689 6:-0.099509 
1 1:0.749198 2:0.35 3:0.893293 4:0.886604 5:0.06292 6:0.130283 
1 1:0.749198 2:0.355 3:0.932927 4:0.941201 5:0.082783 6:-0.383344 
1 1:0.749198 2:0.36 3:0.926829 4:0.933457 5:0.117965 6:0.168668 
1 1:0.749198 2:0.365 3:0.893293 4:0.87817 5:0.08639 6:-0.223694 
1 1:0.749198 2:0.37 3:0.920732 4:0.901672 5:0.061092 6:-0.334314 
1 1:0.749198 2:0.375 3:0.902439 4:0.91914 5:0.180385 6:0.291138 
1 1:0.749198 2:0.38 3:0.92378 4:0.943512 5:0.173449 6:0.291113 
1 1:0.749198 2:0.385 3:0.896341 4:0.9183 5:0.1949 6:0.279018 
1 1:0.749198 2:0.39 3:0.908537 4:0.900291 5:0.171819 6:0.029845 
1 1:0.749198 2:0.395 3:0.902439 4:0.884954 5:0.077201 6:-0.467759 
1 1:0.749198 2:0.4 3:0.914634 4:0.921782 5:0.059977 6:-0.155709 
1 1:0.749198 2:0.405 3:0.920732 4:0.926254 5:0.097226 6:0.112823 
1 1:0.749198 2:0.41 3:0.920732 4:0.921181 5:0.111723 6:-0.032435 
1 1:0.749198 2:0.415 3:0.945122 4:0.940721 5:0.165011 6:0.142452 
1 1:0.749198 2:0.42 3:0.865854 4:0.860372 5:0.050666 6:-0.417417 
1 1:0.749198 2:0.425 3:0.911585 4:0.91845 5:0.541233 6:0.148702 
1 1:0.749198 2:0.43 3:0.948171 4:0.924153 5:0.135288 6:-0.128626 
1 1:0.749198 2:0.435 3:0.890244 4:0.886935 5:0.181748 6:0.193833 
1 1:0.749198 2:0.44 3:0.871951 4:0.886995 5:0.091155 6:0.229027 
1 1:0.749198 2:0.445 3:0.914634 4:0.859981 5:0.086453 6:-0.279944 
1 1:0.749198 2:0.45 3:0.935976 4:0.9394 5:0.594784 6:0.205295 
1 1:0.749198 2:0.455 3:0.939024 4:0.961281 5:0.178408 6:0.290036 
1 1:0.749198 2:0.46 3:0.905488 4:0.889246 5:0.083483 6:-0.20687 
1 1:0.749198 2:0.465 3:0.881098 4:0.872618 5:0.052677 6:-0.083787 
1 1:0.749198 2:0.47 3:0.89939 4:0.910196 5:0.17627 6:0.121535 
1 1:0.749198 2:0.475 3:0.875 4:0.861062 5:0.087829 6:-0.142324 
1 1:0.749198 2:0.48 3:0.89939 4:0.89777 5:0.157698 6:0.147403 
1 1:0.749198 2:0.485 3:0.902439 4:0.907525 5:0.092453 6:0.211037 
1 1:0.749198 2:0.49 3:0.920732 4:0.883183 5:0.141225 6:-0.22192 
1 1:0.749198 2:0.495 3:0.935976 4:0.932977 5:0.114295 6:0.257583 
1 1:0.749198 2:0.5 3:0.95122 4:0.944563 5:0.442771 6:0.068382 
1 1:0.749198 2:0.505 3:0.914634 4:0.91761 5:0.076728 6:-0.23615 
1 1:0.749198 2:0.51 3:0.911585 4:0.907525 5:0.08656 6:0.073529 
1 1:0.749198 2:0.515 3:0.902439 4:0.929315 5:0.168385 6:0.604246 
1 1:0.749198 2:0.52 3:0.920732 4:0.900231 5:0.085734 6:-0.191885 
1 1:0.749198 2:0.525 3:0.905488 4:0.888135 5:0.134058 6:-0.070505 
1 1:0.749198 2:0.53 3:0.917683 4:0.924423 5:0.134637 6:0.28954 
1 1:0.749198 2:0.535 3:0.884146 4:0.866375 5:0.199229 6:0.051564 
1 1:0.749198 2:0.54 3:0.865854 4:0.846055 5:0.047172 6:-0.289615 
1 1:0.749198 2:0.545 3:0.905488 4:0.879131 5:0.087493 6:0.074323 
1 1:0.749198 2:0.55 3:0.95122 4:0.957979 5:0.150344 6:0.243976 
1 1:0.749198 2:0.555 3:0.908537 4:0.885104 5:0.0458 6:-0.186587 
1 1:0.749198 2:0.56 3:0.920732 4:0.920191 5:0.116465 6:-0.043776 
1 1:0.749198 2:0.565 3:0.862805 4:0.831828 5:0.02658 6:-0.260362 
1 1:0.749198 2:0.575 3:0.957317 4:0.972236 5:0.229703 6:0.430719 
1 1:0.749198 2:0.58 3:0.92378 4:0.914668 5:0.149435 6:0.300943 
1 1:0.749198 2:0.585 3:0.902439 4:0.911697 5:0.206926 6:0.466615 
1 1:0.749198 2:0.59 3:0.95122 4:0.926014 5:0.196477 6:0.034027 
1 1:0.749198 2:0.595 3:0.911585 4:0.914908 5:0.143741 6:0.168194 
1 1:0.749198 2:0.6 3:0.881098 4:0.880902 5:0.057185 6:0.307641 
1 1:0.749198 2:0.605 3:0.920732 4:0.923883 5:0.163576 6:0.604267 
1 1:0.749198 2:0.61 3:0.896341 4:0.900111 5:0.124517 6:0.204785 
1 1:0.749198 2:0.615 3:0.932927 4:0.91806 5:0.142424 6:0.153826 
1 1:0.749198 2:0.62 3:0.914634 4:0.931086 5:0.458508 6:0.479551 
1 1:0.749198 2:0.625 3:0.954268 4:0.954828 5:0.126433 6:0.288892 
1 1:0.749198 2:0.63 3:0.926829 4:0.923733 5:0.07054 6:0.147471 
1 1:0.749198 2:0.635 3:0.887195 4:0.87763 5:0.144708 6:0.035946 
1 1:0.749198 2:0.64 3:0.948171 4:0.91923 5:0.110259 6:0.125026 
1 1:0.749198 2:0.645 3:0.908537 4:0.906864 5:0.624032 6:0.247843 
1 1:0.749198 2:0.65 3:0.935976 4:0.931657 5:0.16429 6:0.309001 
1 1:0.749198 2:0.655 3:0.902439 4:0.912747 5:0.172887 6:0.360491 
1 1:0.749198 2:0.66 3:1 4:1 5:0.551571 6:0.594903 
1 1:0.749198 2:0.665 3:0.957317 4:0.949875 5:0.16182 6:0.435768 
1 1:0.749198 2:0.67 3:0.856707 4:0.885884 5:0.087748 6:0.288542 
1 1:0.749198 2:0.675 3:0.905488 4:0.874268 5:0.061997 6:-0.306347 
1 1:0.749198 2:0.685 3:0.929878 4:0.930456 5:0.647475 6:0.552215 
1 1:0.749198 2:0.69 3:0.893293 4:0.873728 5:0.125533 6:0.147009 
1 1:0.749198 2:0.695 3:0.92378 4:0.912417 5:0.116146 6:0.049932 
1 1:0.749198 2:0.7 3:0.89939 4:0.924213 5:0.312008 6:0.549505 
1 1:0.749198 2:0.705 3:0.908537 4:0.921992 5:0.115212 6:0.515526 
1 1:0.749198 2:0.71 3:0.917683 4:0.891827 5:0.114954 6:-0.032186 
1 1:0.749198 2:0.715 3:0.893293 4:0.870727 5:0.052755 6:0.153442 
1 1:0.749198 2:0.72 3:0.911585 4:0.889576 5:0.126134 6:0.194258 
1 1:0.749198 2:0.725 3:0.957317 4:0.961911 5:0.242124 6:0.627277 
1 1:0.749198 2:0.73 3:0.890244 4:0.870276 5:0.378675 6:0.239361 
1 1:0.749198 2:0.735 3:0.896341 4:0.890957 5:0.178236 6:0.337868 
1 1:0.749198 2:0.755 3:0.917683 4:0.900471 5:0.217585 6:0.375527 
1 1:0.749198 2:0.76 3:0.902439 4:0.904433 5:0.324237 6:0.500295 
1 1:0.749198 2:0.765 3:0.92378 4:0.915809 5:0.177505 6:0.508351 
1 1:0.749198 2:0.77 3:0.914634 4:0.884683 5:0.149192 6:0.248448 
1 1:0.749198 2:0.775 3:0.887195 4:0.867005 5:0.126991 6:0.256746 
1 1:0.749198 2:0.78 3:0.884146 4:0.85695 5:0.083386 6:0.048675 
1 1:0.749198 2:0.79 3:0.887195 4:0.895879 5:0.134507 6:0.320765 
1 1:0.749198 2:0.795 3:0.911585 4:0.891317 5:0.137208 6:0.240411 
1 1:0.749198 2:0.8 3:0.917683 4:0.902992 5:0.077059 6:0.099515 
1 1:0.749198 2:0.805 3:0.926829 4:0.925053 5:0.093999 6:0.029108 
1 1:0.749198 2:0.81 3:0.884146 4:0.868956 5:0.174845 6:0.487842 
1 1:0.749198 2:0.82 3:0.871951 4:0.861242 5:0.117424 6:0.263928 
1 1:0.749198 2:0.825 3:0.89939 4:0.885794 5:0.099847 6:0.351793 
1 1:0.749198 2:0.83 3:0.942073 4:0.946034 5:0.810322 6:0.739646 
1 1:0.749198 2:0.835 3:0.890244 4:0.892217 5:0.147935 6:0.53261 
1 1:0.749198 2:0.84 3:0.95122 4:0.908425 5:0.260941 6:0.429238 
1 1:0.749198 2:0.845 3:0.932927 4:0.933457 5:0.151663 6:0.533826 
1 1:0.749198 2:0.85 3:0.908537 4:0.890176 5:0.160312 6:0.372493 
1 1:0.749198 2:0.865 3:0.89939 4:0.893238 5:0.231825 6:0.427886 
1 1:0.749198 2:0.87 3:0.926829 4:0.909536 5:0.173851 6:0.520128 
1 1:0.749198 2:0.875 3:0.926829 4:0.89711 5:0.434317 6:0.632859 
1 1:0.749198 2:0.88 3:0.896341 4:0.884233 5:0.141785 6:0.047496 
1 1:0.749198 2:0.885 3:0.942073 4:0.923553 5:0.212406 6:0.581759 
1 1:0.749198 2:0.89 3:0.908537 4:0.903773 5:0.214564 6:0.464048 
1 1:0.749198 2:0.895 3:0.905488 4:0.910736 5:0.168547 6:0.619742 
1 1:0.749198 2:0.9 3:0.92378 4:0.91863 5:0.332505 6:0.299147 
1 1:0.749198 2:0.915 3:0.92378 4:0.921632 5:0.150904 6:0.48443 
1 1:0.749198 2:0.92 3:0.862805 4:0.870126 5:0.110023 6:0.411665 
1 1:0.749198 2:0.925 3:0.893293 4:0.901132 5:0.261875 6:0.60662 
1 1:0.749198 2:0.93 3:0.935976 4:0.907104 5:0.16828 6:0.207089 
1 1:0.749198 2:0.935 3:0.942073 4:0.923553 5:0.267091 6:0.399571 
1 1:0.749198 2:0.94 3:0.935976 4:0.924633 5:0.217176 6:0.725711 
1 1:0.749198 2:0.945 3:0.881098 4:0.853918 5:0.107346 6:0.418002 
1 1:0.749198 2:0.95 3:0.945122 4:0.949815 5:0.304783 6:0.618943 
1 1:0.749198 2:0.96 3:0.871951 4:0.8571 5:0.086349 6:0.348853 
1 1:0.749198 2:0.965 3:0.896341 4:0.899211 5:0.398243 6:0.489994 
1 1:0.749198 2:0.97 3:0.917683 4:0.902542 5:0.229446 6:0.478846 
1 1:0.749198 2:0.975 3:0.835366 4:0.840862 5:0.05514 6:0.311568 
1 1:0.749198 2:0.98 3:0.871951 4:0.865114 5:0.44488 6:0.532832 
1 1:0.749198 2:0.985 3:0.884146 4:0.872377 5:0.099727 6:0.367222 
1 1:0.749198 2:0.99 3:0.905488 4:0.900741 5:0.139508 6:0.551587 
1 1:0.749198 2:0.995 3:0.908537 4:0.902842 5:0.135716 6:0.201832 
1 1:0.749198 2:0.005 3:0.896341 4:0.884563 5:0.044737 6:-0.761197 
1 1:0.749198 2:0.01 3:0.902439 4:0.885704 5:0.096896 6:-0.755365 
1 1:0.749198 2:0.015 3:0.896341 4:0.903983 5:0.067454 6:-0.266331 
1 1:0.749198 2:0.02 3:0.908537 4:0.899481 5:0.039466 6:-0.832275 
1 1:0.749198 2:0.025 3:0.939024 4:0.926704 5:0.071742 6:-0.655063 
1 1:0.749198 2:0.03 3:0.911585 4:0.909055 5:0.123986 6:-0.259607 
1 1:0.749198 2:0.035 3:0.914634 4:0.887535 5:0.04573 6:-0.726615 
1 1:0.749198 2:0.04 3:0.945122 4:0.93901 5:0.082084 6:-0.596127 
1 1:0.749198 2:0.045 3:0.917683 4:0.900981 5:0.045282 6:-0.58315 
1 1:0.749198 2:0.05 3:0.972561 4:0.969325 5:0.225529 6:-0.008127 
1 1:0.749198 2:0.055 3:0.902439 4:0.907285 5:0.062458 6:-0.419539 
1 1:0.749198 2:0.06 3:0.862805 4:0.824924 5:0.03094 6:-0.615782 
1 1:0.749198 2:0.065 3:0.914634 4:0.892938 5:0.052157 6:-0.866768 
1 1:0.749198 2:0.07 3:0.935976 4:0.963562 5:0.118747 6:0.098665 
1 1:0.749198 2:0.075 3:0.902439 4:0.893118 5:0.037013 6:-0.41813 
1 1:0.749198 2:0.08 3:0.881098 4:0.880601 5:0.046376 6:-0.504338 
1 1:0.749198 2:0.085 3:0.902439 4:0.904043 5:0.080477 6:-0.450795 
1 1:0.749198 2:0.09 3:0.911585 4:0.91779 5:0.078979 6:-0.530024 
1 1:0.749198 2:0.095 3:0.926829 4:0.930396 5:0.085119 6:0.013729 
1 1:0.749198 2:0.1 3:0.942073 4:0.926944 5:0.128755 6:-0.468316 
1 1:0.749198 2:0.105 3:0.92378 4:0.909716 5:0.056706 6:-0.607529 
1 1:0.749198 2:0.11 3:0.917683 4:0.903383 5:0.062964 6:-0.371216 
1 1:0.749198 2:0.115 3:0.932927 4:0.940481 5:0.08271 6:-0.069603 
1 1:0.749198 2:0.12 3:0.911585 4:0.896929 5:0.051981 6:-0.633619 
1 1:0.749198 2:0.125 3:0.914634 4:0.887745 5:0.047952 6:-0.784036 
1 1:0.749198 2:0.13 3:0.905488 4:0.916589 5:0.130643 6:-0.305576 
1 1:0.749198 2:0.135 3:0.884146 4:0.878741 5:0.034355 6:-0.499783 
1 1:0.749198 2:0.14 3:0.862805 4:0.842393 5:0.068152 6:-0.293521 
1 1:0.749198 2:0.145 3:0.914634 4:0.899661 5:0.103996 6:-0.478674 
1 1:0.749198 2:0.15 3:0.89939 4:0.909055 5:0.068851 6:-0.287741 
1 1:0.749198 2:0.155 3:0.884146 4:0.875859 5:0.081715 6:-0.472724 
1 1:0.749198 2:0.16 3:0.948171 4:0.961761 5:0.101688 6:-0.439718 
1 1:0.749198 2:0.165 3:0.914634 4:0.915989 5:0.092791 6:0.106651 
1 1:0.749198 2:0.17 3:0.841463 4:0.839151 5:0.033233 6:-0.269239 
1 1:0.749198 2:0.175 3:0.887195 4:0.883513 5:0.05167 6:-0.623031 
1 1:0.749198 2:0.18 3:0.908537 4:0.904703 5:0.091923 6:-0.152172 
1 1:0.749198 2:0.185 3:0.92378 4:0.929646 5:0.283929 6:0.214584 
1 1:0.749198 2:0.19 3:0.911585 4:0.905664 5:0.089194 6:0.056871 
1 1:0.749198 2:0.195 3:0.884146 4:0.852808 5:0.060126 6:-0.395957 
1 1:0.749198 2:0.2 3:0.905488 4:0.905063 5:0.147959 6:-0.117913 
1 1:0.749198 2:0.205 3:0.868902 4:0.860642 5:0.033428 6:-0.275217 
1 1:0.749198 2:0.21 3:0.89939 4:0.864093 5:0.062053 6:-0.407148 
1 1:0.749198 2:0.215 3:0.902439 4:0.89891 5:0.06799 6:-0.247286 
1 1:0.749198 2:0.22 3:0.939024 4:0.91902 5:0.117067 6:-0.292067 
1 1:0.749198 2:0.225 3:0.902439 4:0.87814 5:0.115156 6:-0.110287 
1 1:0.749198 2:0.23 3:0.945122 4:0.940481 5:0.159555 6:-0.239372 
1 1:0.749198 2:0.235 3:0.939024 4:0.922172 5:0.134661 6:-0.481124 
1 1:0.749198 2:0.24 3:0.942073 4:0.953057 5:0.191915 6:0.115448 
1 1:0.749198 2:0.245 3:0.911585 4:0.914518 5:0.055533 6:-0.370604 
1 1:0.749198 2:0.25 3:0.929878 4:0.933097 5:0.083129 6:0.002839 
1 1:0.749198 2:0.255 3:0.896341 4:0.889246 5:0.054708 6:-0.294651 
1 1:0.749198 2:0.26 3:0.905488 4:0.89873 5:0.191264 6:-0.006179 
1 1:0.749198 2:0.265 3:0.862805 4:0.827265 5:0.035338 6:-0.528431 
1 1:0.749198 2:0.27 3:0.875 4:0.875259 5:0.045634 6:-0.206706 
1 1:0.749198 2:0.275 3:0.890244 4:0.903473 5:0.175227 6:-0.011066 
1 1:0.749198 2:0.28 3:0.896341 4:0.926734 5:0.111395 6:0.087706 
1 1:0.749198 2:0.285 3:0.890244 4:0.875289 5:0.071359 6:-0.292067 
1 1:0.749198 2:0.29 3:0.945122 4:0.932647 5:0.078131 6:-0.387247 
1 1:0.749198 2:0.295 3:0.89939 4:0.868175 5:0.052511 6:-0.533932 
1 1:0.749198 2:0.3 3:0.881098 4:0.875439 5:0.07147 6:-0.041652 
1 1:0.749198 2:0.305 3:0.926829 4:0.922262 5:0.119564 6:-0.10408 
1 1:0.749198 2:0.31 3:0.939024 4:0.935018 5:0.655492 6:-0.006379 
1 1:0.749198 2:0.315 3:0.948171 4:0.942882 5:0.155984 6:0.044711 
1 1:0.749198 2:0.32 3:0.911585 4:0.908575 5:0.087779 6:-0.285909 
1 1:0.749198 2:0.325 3:0.896341 4:0.89888 5:0.081646 6:0.084477 
1 1:0.749198 2:0.33 3:0.902439 4:0.894048 5:0.046974 6:-0.416665 
1 1:0.749198 2:0.335 3:0.887195 4:0.885134 5:0.143973 6:-0.296614 
1 1:0.749198 2:0.34 3:0.902439 4:0.885284 5:0.107128 6:-0.271321 
1 1:0.749198 2:0.345 3:0.908537 4:0.908545 5:0.075116 6:-0.105117 
1 1:0.749198 2:0.35 3:0.908537 4:0.91917 5:0.111946 6:0.128527 
1 1:0.749198 2:0.355 3:0.939024 4:0.950026 5:0.170192 6:0.25051 
1 1:0.749198 2:0.36 3:0.887195 4:0.854909 5:0.08942 6:-0.332306 
1 1:0.749198 2:0.365 3:0.926829 4:0.920191 5:0.148179 6:0.00595 
1 1:0.749198 2:0.37 3:0.902439 4:0.906114 5:0.134325 6:-0.009324 
1 1:0.749198 2:0.375 3:0.881098 4:0.860131 5:0.053487 6:-0.5563 
1 1:0.749198 2:0.38 3:0.884146 4:0.880632 5:0.624557 6:0.022197 
1 1:0.749198 2:0.385 3:0.917683 4:0.903773 5:0.069835 6:-0.189445 
1 1:0.749198 2:0.39 3:0.911585 4:0.925203 5:0.11262 6:-0.080375 
1 1:0.749198 2:0.395 3:0.905488 4:0.902572 5:0.085967 6:-0.170318 
1 1:0.749198 2:0.4 3:0.908537 4:0.905274 5:0.697196 6:0.359073 
1 1:0.749198 2:0.405 3:0.905488 4:0.887295 5:0.045541 6:-0.286088 
1 1:0.749198 2:0.41 3:0.902439 4:0.885044 5:0.086434 6:-0.142445 
1 1:0.749198 2:0.415 3:0.926829 4:0.912147 5:0.08643 6:0.030591 
1 1:0.749198 2:0.42 3:0.926829 4:0.925654 5:0.076777 6:-0.109894 
1 1:0.749198 2:0.425 3:0.875 4:0.883993 5:0.059654 6:-0.043905 
1 1:0.749198 2:0.43 3:0.929878 4:0.909085 5:0.117514 6:-0.16558 
1 1:0.749198 2:0.435 3:0.945122 4:0.927214 5:0.313268 6:-0.08917 
1 1:0.749198 2:0.44 3:0.957317 4:0.967044 5:0.137719 6:0.106483 
1 1:0.749198 2:0.445 3:0.926829 4:0.911427 5:0.066121 6:-0.005115 
1 1:0.749198 2:0.45 3:0.926829 4:0.902062 5:0.141543 6:-0.276917 
1 1:0.749198 2:0.455 3:0.963415 4:0.986824 5:0.390053 6:0.408194 
1 1:0.749198 2:0.46 3:0.868902 4:0.880151 5:0.212641 6:0.049052 
1 1:0.749198 2:0.465 3:0.969512 4:0.973947 5:0.253803 6:0.364735 
1 1:0.749198 2:0.47 3:0.847561 4:0.837771 5:0.084473 6:-0.070139 
1 1:0.749198 2:0.475 3:0.920732 4:0.931446 5:0.163687 6:0.21716 
1 1:0.749198 2:0.48 3:0.92378 4:0.89705 5:0.121899 6:-0.08602 
1 1:0.749198 2:0.485 3:0.948171 4:0.933157 5:0.413386 6:-0.016843 
1 1:0.749198 2:0.49 3:0.905488 4:0.881412 5:0.086838 6:-0.470979 
1 1:0.749198 2:0.495 3:0.89939 4:0.905844 5:0.080548 6:0.07858 
1 1:0.749198 2:0.5 3:0.926829 4:0.961821 5:0.373167 6:0.444013 
1 1:0.749198 2:0.505 3:0.914634 4:0.908365 5:0.347236 6:0.012643 
1 1:0.749198 2:0.51 3:0.905488 4:0.891797 5:0.078574 6:-0.103706 
1 1:0.749198 2:0.515 3:0.887195 4:0.881622 5:0.212523 6:0.092003 
1 1:0.749198 2:0.52 3:0.939024 4:0.93904 5:0.099408 6:0.098373 
1 1:0.749198 2:0.525 3:0.920732 4:0.888435 5:0.243202 6:-0.005418 
1 1:0.749198 2:0.53 3:0.893293 4:0.894438 5:0.151784 6:0.110361 
1 1:0.749198 2:0.535 3:0.902439 4:0.888675 5:0.082363 6:0.095676 
1 1:0.749198 2:0.54 3:0.871951 4:0.869526 5:0.042981 6:-0.073884 
1 1:0.749198 2:0.545 3:0.871951 4:0.889726 5:0.11302 6:0.344807 
1 1:0.749198 2:0.55 3:0.902439 4:0.862953 5:0.081927 6:-0.219166 
1 1:0.749198 2:0.555 3:0.920732 4:0.900831 5:0.082116 6:-0.176439 
1 1:0.749198 2:0.56 3:0.929878 4:0.939821 5:0.07026 6:-0.144642 
1 1:0.749198 2:0.565 3:0.893293 4:0.864243 5:0.061427 6:-0.116817 
1 1:0.749198 2:0.57 3:0.929878 4:0.925834 5:0.198598 6:0.325161 
1 1:0.749198 2:0.575 3:0.920732 4:0.902452 5:0.189051 6:0.296946 
1 1:0.749198 2:0.58 3:0.92378 4:0.941531 5:0.266562 6:0.287789 
1 1:0.749198 2:0.585 3:0.896341 4:0.899571 5:0.053634 6:-0.064047 
1 1:0.749198 2:0.59 3:0.908537 4:0.896749 5:0.214905 6:0.087118 
1 1:0.749198 2:0.595 3:0.881098 4:0.866194 5:0.046537 6:-0.226208 
1 1:0.749198 2:0.6 3:0.945122 4:0.929225 5:0.120178 6:0.285959 
1 1:0.749198 2:0.61 3:0.917683 4:0.926314 5:0.218491 6:0.268423 
1 1:0.749198 2:0.615 3:0.878049 4:0.889906 5:0.112819 6:0.050931 
1 1:0.749198 2:0.62 3:0.914634 4:0.901342 5:0.596837 6:0.269234 
1 1:0.749198 2:0.625 3:0.917683 4:0.908125 5:0.141047 6:0.062166 
1 1:0.749198 2:0.63 3:0.893293 4:0.893658 5:0.589145 6:0.420101 
1 1:0.749198 2:0.635 3:0.908537 4:0.906114 5:0.149346 6:0.307949 
1 1:0.749198 2:0.64 3:0.893293 4:0.889306 5:0.112189 6:0.165967 
1 1:0.749198 2:0.645 3:0.89939 4:0.883393 5:0.095136 6:0.083601 
1 1:0.749198 2:0.65 3:0.929878 4:0.928715 5:0.171347 6:0.479146 
1 1:0.749198 2:0.655 3:0.948171 4:0.963502 5:0.310181 6:0.578277 
1 1:0.749198 2:0.66 3:0.875 4:0.889636 5:0.051056 6:0.038757 
1 1:0.749198 2:0.665 3:0.881098 4:0.880782 5:0.14679 6:0.44871 
1 1:0.749198 2:0.67 3:0.908537 4:0.920311 5:0.177172 6:0.227428 
1 1:0.749198 2:0.675 3:0.862805 4:0.864334 5:0.082337 6:0.23862 
1 1:0.749198 2:0.68 3:0.902439 4:0.896689 5:0.373643 6:0.265168 
1 1:0.749198 2:0.685 3:0.945122 4:0.925774 5:0.593201 6:0.196411 
1 1:0.749198 2:0.69 3:0.914634 4:0.871387 5:0.087043 6:-0.184362 
1 1:0.749198 2:0.695 3:0.890244 4:0.895459 5:0.186069 6:0.387346 
1 1:0.749198 2:0.7 3:0.92378 4:0.914938 5:0.077849 6:0.139433 
1 1:0.749198 2:0.705 3:0.896341 4:0.899601 5:0.197647 6:0.341193 
1 1:0.749198 2:0.71 3:0.902439 4:0.893448 5:0.170886 6:0.357633 
1 1:0.749198 2:0.715 3:0.887195 4:0.866014 5:0.055827 6:0.000916 
1 1:0.749198 2:0.72 3:0.917683 4:0.899451 5:0.115951 6:0.333509 
1 1:0.749198 2:0.725 3:0.893293 4:0.87748 5:0.150853 6:0.369671 
1 1:0.749198 2:0.73 3:0.911585 4:0.89849 5:0.096086 6:0.243674 
1 1:0.749198 2:0.735 3:0.914634 4:0.911457 5:0.194917 6:0.414261 
1 1:0.749198 2:0.74 3:0.896341 4:0.903983 5:0.076478 6:0.279824 
1 1:0.749198 2:0.745 3:0.896341 4:0.89867 5:0.196929 6:0.513848 
1 1:0.749198 2:0.75 3:0.926829 4:0.912687 5:0.331678 6:0.258702 
1 1:0.749198 2:0.755 3:0.92378 4:0.890716 5:0.207355 6:0.200348 
1 1:0.749198 2:0.76 3:0.95122 4:0.962902 5:0.215272 6:0.44763 
1 1:0.749198 2:0.765 3:0.948171 4:0.943032 5:0.186781 6:0.296506 
1 1:0.749198 2:0.77 3:0.884146 4:0.869226 5:0.102983 6:0.250858 
1 1:0.749198 2:0.775 3:0.929878 4:0.946754 5:0.24685 6:0.62723 
1 1:0.749198 2:0.78 3:0.887195 4:0.899541 5:0.129783 6:0.504657 
1 1:0.749198 2:0.785 3:0.92378 4:0.942852 5:0.316487 6:0.787457 
1 1:0.749198 2:0.79 3:0.893293 4:0.916949 5:0.177731 6:0.513926 
1 1:0.749198 2:0.8 3:0.932927 4:0.926374 5:0.125112 6:0.3214 
1 1:0.749198 2:0.805 3:0.905488 4:0.895969 5:0.098581 6:0.060068 
1 1:0.749198 2:0.81 3:0.926829 4:0.906474 5:0.070263 6:0.012138 
1 1:0.749198 2:0.815 3:0.914634 4:0.912807 5:0.192846 6:0.473744 
1 1:0.749198 2:0.82 3:0.929878 4:0.870727 5:0.132357 6:-0.071055 
1 1:0.749198 2:0.825 3:0.914634 4:0.872287 5:0.128045 6:0.271347 
1 1:0.749198 2:0.83 3:0.905488 4:0.904193 5:0.206163 6:0.210433 
1 1:0.749198 2:0.835 3:0.881098 4:0.838161 5:0.06362 6:-0.171063 
1 1:0.749198 2:0.845 3:0.905488 4:0.894828 5:0.093319 6:0.175571 
1 1:0.749198 2:0.85 3:0.911585 4:0.893778 5:0.129511 6:0.28149 
1 1:0.749198 2:0.855 3:0.89939 4:0.89885 5:0.167176 6:0.333863 
1 1:0.749198 2:0.86 3:0.911585 4:0.907885 5:0.280026 6:0.569613 
1 1:0.749198 2:0.865 3:0.920732 4:0.920941 5:0.340406 6:0.621625 
1 1:0.749198 2:0.87 3:0.926829 4:0.923973 5:0.303376 6:0.502076 
1 1:0.749198 2:0.88 3:0.914634 4:0.8978 5:0.19994 6:0.262633 
1 1:0.749198 2:0.885 3:0.945122 4:0.941171 5:0.22463 6:0.480335 
1 1:0.749198 2:0.895 3:0.939024 4:0.928685 5:0.328645 6:0.411471 
1 1:0.749198 2:0.9 3:0.917683 4:0.8975 5:0.129063 6:0.057195 
1 1:0.749198 2:0.905 3:0.920732 4:0.914008 5:0.733911 6:0.436773 
1 1:0.749198 2:0.91 3:0.914634 4:0.903263 5:0.212932 6:0.548552 
1 1:0.749198 2:0.915 3:0.942073 4:0.918 5:0.306849 6:0.217355 
1 1:0.749198 2:0.92 3:0.920732 4:0.903743 5:0.099132 6:0.300048 
1 1:0.749198 2:0.925 3:0.908537 4:0.890116 5:0.254644 6:0.235365 
1 1:0.749198 2:0.93 3:0.911585 4:0.903623 5:0.044337 6:-0.067864 
1 1:0.749198 2:0.94 3:0.920732 4:0.907555 5:0.209051 6:0.516389 
1 1:0.749198 2:0.945 3:0.85061 4:0.833989 5:0.07222 6:0.353845 
1 1:0.749198 2:0.95 3:0.856707 4:0.840802 5:0.202114 6:0.339843 
1 1:0.749198 2:0.955 3:0.942073 4:0.925203 5:0.356672 6:0.647912 
1 1:0.749198 2:0.96 3:0.945122 4:0.924153 5:0.450123 6:0.835523 
1 1:0.749198 2:0.965 3:0.920732 4:0.923583 5:0.164409 6:0.658992 
1 1:0.749198 2:0.97 3:0.942073 4:0.91743 5:0.153926 6:0.333553 
1 1:0.749198 2:0.975 3:0.914634 4:0.911547 5:0.341683 6:0.544838 
1 1:0.749198 2:0.98 3:0.887195 4:0.855989 5:0.223518 6:0.371753 
1 1:0.749198 2:0.985 3:0.896341 4:0.880211 5:0.132497 6:0.29516 
1 1:0.749198 2:0.99 3:0.926829 4:0.924933 5:0.340325 6:0.819279 
1 1:0.749198 2:0.995 3:0.884146 4:0.868986 5:0.31998 6:0.368478 
1 1:0.749198 2:0.005 3:0.972561 4:0.975208 5:0.170315 6:-0.464951 
1 1:0.748935 2:0.01 3:0.95092 4:0.955071 5:0.205541 6:-0.308098 
1 1:0.748935 2:0.015 3:0.941718 4:0.937087 5:0.058276 6:-0.579188 
1 1:0.748935 2:0.02 3:0.91411 4:0.90474 5:0.070658 6:-0.549731 
1 1:0.748935 2:0.025 3:0.880368 4:0.908784 5:0.062142 6:-0.131885 
1 1:0.748935 2:0.03 3:0.917178 4:0.91678 5:0.0511 6:-0.470404 
1 1:0.748935 2:0.035 3:0.904908 4:0.893938 5:0.073997 6:-0.49033 
1 1:0.748935 2:0.05 3:0.923313 4:0.907999 5:0.09183 6:-0.354451 
1 1:0.748935 2:0.055 3:0.907975 4:0.926375 5:0.12429 6:-0.126799 
1 1:0.748935 2:0.06 3:0.895706 4:0.905947 5:0.074026 6:-0.202242 
1 1:0.748935 2:0.065 3:0.93865 4:0.907124 5:0.131988 6:-0.821705 
1 1:0.748935 2:0.07 3:0.911043 4:0.889744 5:0.051149 6:-0.552305 
1 1:0.748935 2:0.075 3:0.92638 4:0.916388 5:0.064432 6:-0.414003 
1 1:0.748935 2:0.08 3:0.91411 4:0.918952 5:0.051694 6:-0.419194 
1 1:0.748935 2:0.085 3:0.886503 4:0.866057 5:0.034327 6:-0.371048 
1 1:0.748935 2:0.095 3:0.935583 4:0.909025 5:0.056696 6:-0.711133 
1 1:0.748935 2:0.105 3:0.941718 4:0.91681 5:0.102125 6:-0.633383 
1 1:0.748935 2:0.11 3:0.92638 4:0.939682 5:0.117989 6:-0.215181 
1 1:0.748935 2:0.115 3:0.911043 4:0.871096 5:0.048162 6:-0.600807 
1 1:0.748935 2:0.12 3:0.932515 4:0.950786 5:0.136475 6:-0.017188 
1 1:0.748935 2:0.125 3:0.898773 4:0.895054 5:0.044688 6:-0.45591 
1 1:0.748935 2:0.13 3:0.865031 4:0.856703 5:0.050265 6:-0.39414 
1 1:0.748935 2:0.135 3:0.953988 4:0.930901 5:0.116418 6:-0.371482 
1 1:0.748935 2:0.14 3:0.880368 4:0.893998 5:0.588868 6:0.012774 
1 1:0.748935 2:0.145 3:0.953988 4:0.980628 5:0.102521 6:-0.337562 
1 1:0.748935 2:0.15 3:0.911043 4:0.897016 5:0.053363 6:-0.443069 
1 1:0.748935 2:0.155 3:0.895706 4:0.890921 5:0.109572 6:-0.011078 
1 1:0.748935 2:0.16 3:0.886503 4:0.879696 5:0.042501 6:-0.65405 
1 1:0.748935 2:0.165 3:0.904908 4:0.884011 5:0.115252 6:-0.203888 
1 1:0.748935 2:0.17 3:0.923313 4:0.918681 5:0.111612 6:-0.232101 
1 1:0.748935 2:0.175 3:0.874233 4:0.860475 5:0.025856 6:-0.576658 
1 1:0.748935 2:0.18 3:0.886503 4:0.884131 5:0.044424 6:-0.298658 
1 1:0.748935 2:0.185 3:0.90184 4:0.886666 5:0.102449 6:-0.495071 
1 1:0.748935 2:0.19 3:0.929448 4:0.929936 5:0.070024 6:-0.152456 
1 1:0.748935 2:0.195 3:0.907975 4:0.886968 5:0.055279 6:-0.437726 
1 1:0.748935 2:0.2 3:0.895706 4:0.888839 5:0.079663 6:-0.405621 
1 1:0.748935 2:0.205 3:0.95092 4:0.923901 5:0.234211 6:-0.230631 
1 1:0.748935 2:0.21 3:0.895706 4:0.871006 5:0.108558 6:-0.300107 
1 1:0.748935 2:0.215 3:0.93865 4:0.93582 5:0.18545 6:-0.279558 
1 1:0.748935 2:0.22 3:0.871166 4:0.871247 5:0.281712 6:-0.192707 
1 1:0.748935 2:0.225 3:0.898773 4:0.909357 5:0.100513 6:-0.126645 
1 1:0.748935 2:0.23 3:0.92638 4:0.900003 5:0.175761 6:-0.359826 
1 1:0.748935 2:0.235 3:0.944785 4:0.962313 5:0.194751 6:0.131305 
1 1:0.748935 2:0.24 3:0.923313 4:0.923418 5:0.13494 6:-0.365868 
1 1:0.748935 2:0.245 3:0.880368 4:0.875441 5:0.237609 6:0.001696 
1 1:0.748935 2:0.25 3:0.95092 4:0.949006 5:0.153437 6:0.01148 
1 1:0.748935 2:0.255 3:0.892638 4:0.883649 5:0.064393 6:-0.211187 
1 1:0.748935 2:0.26 3:0.92638 4:0.908452 5:0.150192 6:-0.123666 
1 1:0.748935 2:0.265 3:0.92638 4:0.896835 5:0.101377 6:-0.159111 
1 1:0.748935 2:0.27 3:0.904908 4:0.919194 5:0.482357 6:0.205648 
1 1:0.748935 2:0.275 3:0.904908 4:0.920642 5:0.06893 6:-0.0671 
1 1:0.748935 2:0.28 3:0.907975 4:0.932561 5:0.095319 6:0.216019 
1 1:0.748935 2:0.285 3:0.966258 4:0.973779 5:0.185204 6:0.0291 
1 1:0.748935 2:0.29 3:0.892638 4:0.903594 5:0.209491 6:0.456058 
1 1:0.748935 2:0.295 3:0.935583 4:0.926254 5:0.125585 6:-0.238084 
1 1:0.748935 2:0.3 3:0.880368 4:0.864669 5:0.053891 6:-0.284871 
1 1:0.748935 2:0.305 3:0.871166 4:0.859419 5:0.065179 6:-0.333455 
1 1:0.748935 2:0.31 3:0.91411 4:0.911892 5:0.242149 6:0.035867 
1 1:0.748935 2:0.315 3:0.874233 4:0.852358 5:0.048596 6:-0.46151 
1 1:0.748935 2:0.32 3:0.929448 4:0.914185 5:0.108555 6:-0.034491 
1 1:0.748935 2:0.325 3:0.861963 4:0.836336 5:0.018642 6:-0.690744 
1 1:0.748935 2:0.33 3:0.96319 4:0.944902 5:0.247106 6:-0.078548 
1 1:0.748935 2:0.335 3:0.871166 4:0.857005 5:0.032126 6:-0.655576 
1 1:0.748935 2:0.34 3:0.92638 4:0.877584 5:0.055242 6:-0.619486 
1 1:0.748935 2:0.345 3:0.93865 4:0.92544 5:0.124295 6:-0.082053 
1 1:0.748935 2:0.35 3:0.93865 4:0.938928 5:0.1827 6:0.046873 
1 1:0.748935 2:0.355 3:0.889571 4:0.871187 5:0.090673 6:-0.225384 
1 1:0.748935 2:0.36 3:0.907975 4:0.908512 5:0.203327 6:-0.055962 
1 1:0.748935 2:0.365 3:0.929448 4:0.920582 5:0.07617 6:-0.180867 
1 1:0.748935 2:0.37 3:0.929448 4:0.908482 5:0.110946 6:-0.17421 
1 1:0.748935 2:0.375 3:0.941718 4:0.909991 5:0.104865 6:-0.620521 
1 1:0.748935 2:0.38 3:0.91411 4:0.901964 5:0.152003 6:-0.092843 
1 1:0.748935 2:0.385 3:0.904908 4:0.906038 5:0.118422 6:0.242634 
1 1:0.748935 2:0.39 3:0.978528 4:0.96011 5:0.104878 6:0.097328 
1 1:0.748935 2:0.395 3:0.886503 4:0.875351 5:0.045072 6:-0.148095 
1 1:0.748935 2:0.4 3:0.92638 4:0.915301 5:0.086352 6:-0.1575 
1 1:0.748935 2:0.405 3:0.90184 4:0.882019 5:0.060753 6:-0.183663 
1 1:0.748935 2:0.41 3:0.90184 4:0.887964 5:0.107843 6:0.117351 
1 1:0.748935 2:0.415 3:0.91411 4:0.895296 5:0.07832 6:-0.114999 
1 1:0.748935 2:0.42 3:0.90184 4:0.913793 5:0.171159 6:0.218585 
1 1:0.748935 2:0.425 3:0.865031 4:0.836155 5:0.070285 6:-0.419041 
1 1:0.748935 2:0.43 3:0.944785 4:0.912918 5:0.63344 6:-0.13248 
1 1:0.748935 2:0.435 3:0.889571 4:0.882774 5:0.06293 6:0.078446 
1 1:0.748935 2:0.44 3:0.929448 4:0.910715 5:0.099489 6:-0.030043 
1 1:0.748935 2:0.445 3:0.907975 4:0.918379 5:0.160661 6:0.494919 
1 1:0.748935 2:0.45 3:0.917178 4:0.913793 5:0.160656 6:0.212446 
1 1:0.748935 2:0.455 3:0.898773 4:0.877916 5:0.069253 6:-0.049982 
1 1:0.748935 2:0.46 3:0.929448 4:0.912736 5:0.219062 6:-0.25223 
1 1:0.748935 2:0.465 3:0.929448 4:0.916478 5:0.099789 6:-0.156974 
1 1:0.748935 2:0.47 3:0.868098 4:0.878066 5:0.856781 6:0.492054 
1 1:0.748935 2:0.475 3:0.892638 4:0.880541 5:0.596769 6:0.024214 
1 1:0.748935 2:0.48 3:0.941718 4:0.929694 5:0.437865 6:-0.324966 
1 1:0.748935 2:0.485 3:0.932515 4:0.943816 5:0.361394 6:0.076012 
1 1:0.748935 2:0.49 3:0.91411 4:0.906913 5:0.13053 6:0.065977 
1 1:0.748935 2:0.495 3:0.904908 4:0.874989 5:0.062819 6:-0.438743 
1 1:0.748935 2:0.5 3:0.907975 4:0.934703 5:0.132458 6:0.429184 
1 1:0.748935 2:0.505 3:0.904908 4:0.90993 5:0.167787 6:0.101563 
1 1:0.748935 2:0.51 3:0.935583 4:0.914336 5:0.216026 6:-0.04579 
1 1:0.748935 2:0.515 3:0.904908 4:0.908391 5:0.120999 6:0.021955 
1 1:0.748935 2:0.52 3:0.93865 4:0.947738 5:0.225224 6:0.182468 
1 1:0.748935 2:0.525 3:0.941718 4:0.918138 5:0.128781 6:0.021643 
1 1:0.748935 2:0.53 3:0.941718 4:0.920582 5:0.144402 6:-0.051882 
1 1:0.748935 2:0.535 3:0.92638 4:0.926315 5:0.167185 6:0.049685 
1 1:0.748935 2:0.54 3:0.892638 4:0.895598 5:0.086387 6:0.048004 
1 1:0.748935 2:0.545 3:0.923313 4:0.924927 5:0.111414 6:0.31118 
1 1:0.748935 2:0.55 3:0.895706 4:0.879424 5:0.081513 6:-0.138648 
1 1:0.748935 2:0.555 3:0.90184 4:0.900154 5:0.057737 6:0.00799 
1 1:0.748935 2:0.56 3:0.858896 4:0.833258 5:0.031879 6:-0.185284 
1 1:0.748935 2:0.57 3:0.907975 4:0.911258 5:0.106781 6:0.109351 
1 1:0.748935 2:0.575 3:0.935583 4:0.92547 5:0.311102 6:0.451966 
1 1:0.748935 2:0.58 3:0.929448 4:0.928638 5:0.138706 6:0.080851 
1 1:0.748935 2:0.585 3:0.907975 4:0.900697 5:0.108651 6:-0.119862 
1 1:0.748935 2:0.59 3:0.855828 4:0.860083 5:0.236415 6:0.240127 
1 1:0.748935 2:0.595 3:0.97546 4:0.96008 5:0.811012 6:0.175118 
1 1:0.748935 2:0.6 3:0.969325 4:0.943424 5:0.144498 6:-0.071748 
1 1:0.748935 2:0.605 3:0.923313 4:0.926315 5:0.28312 6:0.317785 
1 1:0.748935 2:0.61 3:0.953988 4:0.944872 5:0.430267 6:0.679864 
1 1:0.748935 2:0.615 3:0.911043 4:0.893153 5:0.111949 6:0.143157 
1 1:0.748935 2:0.62 3:0.904908 4:0.894481 5:0.093272 6:0.074108 
1 1:0.748935 2:0.625 3:0.932515 4:0.909749 5:0.125281 6:0.100891 
1 1:0.748935 2:0.63 3:0.886503 4:0.880873 5:0.360884 6:0.032737 
1 1:0.748935 2:0.635 3:0.923313 4:0.903624 5:0.094732 6:-0.2356 
1 1:0.748935 2:0.64 3:0.886503 4:0.867536 5:0.205817 6:0.105676 
1 1:0.748935 2:0.645 3:0.90184 4:0.897318 5:0.125552 6:0.319778 
1 1:0.748935 2:0.65 3:0.843558 4:0.819981 5:0.050929 6:-0.024023 
1 1:0.748935 2:0.655 3:0.911043 4:0.904197 5:0.109885 6:0.390336 
1 1:0.748935 2:0.66 3:0.904908 4:0.887752 5:0.11652 6:0.060987 
1 1:0.748935 2:0.665 3:0.944785 4:0.936393 5:0.413147 6:0.400127 
1 1:0.748935 2:0.67 3:0.855828 4:0.860505 5:0.096982 6:0.296315 
1 1:0.748935 2:0.675 3:0.91411 4:0.913099 5:0.257793 6:0.216356 
1 1:0.748935 2:0.685 3:0.898773 4:0.888778 5:0.204161 6:0.383307 
1 1:0.748935 2:0.69 3:0.923313 4:0.915663 5:0.441635 6:0.208469 
1 1:0.748935 2:0.695 3:0.90184 4:0.8822 5:0.086016 6:-0.04223 
1 1:0.748935 2:0.7 3:0.92638 4:0.94104 5:0.224358 6:0.605571 
1 1:0.748935 2:0.705 3:0.898773 4:0.885067 5:0.16146 6:0.521349 
1 1:0.748935 2:0.71 3:0.886503 4:0.910685 5:0.14188 6:0.344218 
1 1:0.748935 2:0.715 3:0.957055 4:0.953109 5:0.187501 6:0.329943 
1 1:0.748935 2:0.72 3:0.911043 4:0.89255 5:0.063425 6:0.049378 
1 1:0.748935 2:0.725 3:0.920245 4:0.913008 5:0.138759 6:0.486356 
1 1:0.748935 2:0.73 3:0.917178 4:0.932501 5:0.159546 6:0.401109 
1 1:0.748935 2:0.735 3:0.907975 4:0.902326 5:0.165344 6:0.3751 
1 1:0.748935 2:0.745 3:0.892638 4:0.895839 5:0.237399 6:0.282428 
1 1:0.748935 2:0.75 3:0.941718 4:0.921487 5:0.654766 6:0.383189 
1 1:0.748935 2:0.755 3:0.92638 4:0.933738 5:0.515746 6:0.732009 
1 1:0.748935 2:0.76 3:0.932515 4:0.92381 5:0.358989 6:0.432864 
1 1:0.748935 2:0.765 3:0.90184 4:0.884433 5:0.082786 6:0.016116 
1 1:0.748935 2:0.77 3:0.941718 4:0.920159 5:0.449417 6:0.381704 
1 1:0.748935 2:0.78 3:0.923313 4:0.944057 5:0.164452 6:0.592844 
1 1:0.748935 2:0.785 3:0.895706 4:0.91331 5:0.099028 6:0.484741 
1 1:0.748935 2:0.795 3:0.907975 4:0.899641 5:0.289284 6:0.824854 
1 1:0.748935 2:0.8 3:0.923313 4:0.935699 5:0.098128 6:0.388001 
1 1:0.748935 2:0.805 3:0.932515 4:0.89608 5:0.154008 6:-0.167111 
1 1:0.748935 2:0.815 3:0.929448 4:0.932832 5:0.321566 6:0.797201 
1 1:0.748935 2:0.82 3:0.91411 4:0.882985 5:0.338555 6:0.372048 
1 1:0.748935 2:0.825 3:0.917178 4:0.904258 5:0.82515 6:0.298141 
1 1:0.748935 2:0.83 3:0.923313 4:0.898645 5:0.104403 6:0.260741 
1 1:0.748935 2:0.835 3:0.944785 4:0.939441 5:0.29041 6:0.830062 
1 1:0.748935 2:0.84 3:0.932515 4:0.915935 5:0.548402 6:0.729753 
1 1:0.748935 2:0.845 3:0.883436 4:0.89774 5:0.191386 6:0.507647 
1 1:0.748935 2:0.85 3:0.904908 4:0.881687 5:0.189191 6:0.436682 
1 1:0.748935 2:0.855 3:0.95092 4:0.966688 5:0.56281 6:0.963756 
1 1:0.748935 2:0.86 3:0.929448 4:0.910232 5:0.092412 6:0.192985 
1 1:0.748935 2:0.865 3:0.889571 4:0.881205 5:0.14698 6:0.457628 
1 1:0.748935 2:0.87 3:0.874233 4:0.862617 5:0.352299 6:0.240274 
1 1:0.748935 2:0.875 3:0.904908 4:0.930419 5:0.34111 6:0.719285 
1 1:0.748935 2:0.88 3:0.944785 4:0.940949 5:0.467892 6:0.597809 
1 1:0.748935 2:0.885 3:0.929448 4:0.924112 5:0.336588 6:0.629649 
1 1:0.748935 2:0.89 3:0.889571 4:0.860234 5:0.311824 6:0.099463 
1 1:0.748935 2:0.895 3:0.929448 4:0.940798 5:0.295181 6:0.948021 
1 1:0.748935 2:0.9 3:0.904908 4:0.869708 5:0.222684 6:0.292823 
1 1:0.748935 2:0.905 3:0.944785 4:0.942911 5:0.882356 6:0.848886 
1 1:0.748935 2:0.91 3:0.92638 4:0.894904 5:0.141351 6:0.265524 
1 1:0.748935 2:0.915 3:0.923313 4:0.939048 5:0.355139 6:0.534274 
1 1:0.748935 2:0.92 3:0.911043 4:0.905736 5:0.080046 6:0.378341 
1 1:0.748935 2:0.925 3:0.861963 4:0.848526 5:0.111886 6:0.341435 
1 1:0.748935 2:0.93 3:0.95092 4:0.940285 5:0.73912 6:0.774368 
1 1:0.748935 2:0.94 3:0.941718 4:0.925108 5:0.780387 6:0.840831 
1 1:0.748935 2:0.945 3:0.877301 4:0.871639 5:0.087207 6:0.334826 
1 1:0.748935 2:0.95 3:0.92638 4:0.921276 5:0.356802 6:0.670746 
1 1:0.748935 2:0.955 3:0.907975 4:0.903775 5:0.275147 6:0.522004 
1 1:0.748935 2:0.96 3:0.904908 4:0.905012 5:0.105872 6:0.269321 
1 1:0.748935 2:0.965 3:0.907975 4:0.924685 5:0.11483 6:0.592728 
1 1:0.748935 2:0.97 3:0.911043 4:0.895718 5:0.240558 6:0.425649 
1 1:0.748935 2:0.975 3:0.957055 4:0.932651 5:0.404882 6:0.607691 
1 1:0.748935 2:0.98 3:0.923313 4:0.919043 5:0.297093 6:0.742685 
1 1:0.748935 2:0.985 3:0.917178 4:0.900757 5:0.201764 6:0.552463 
1 1:0.748935 2:0.995 3:0.880368 4:0.850367 5:0.094988 6:0.271206 
1 1:0.748935 2:1 3:0.892638 4:0.868381 5:0.134722 6:0.369608 
1 1:0.748935 2:0.005 3:0.95092 4:0.927884 5:0.065496 6:-0.74178 
1 1:0.748935 2:0.01 3:0.920245 4:0.913883 5:0.050603 6:-0.595539 
1 1:0.748935 2:0.02 3:0.892638 4:0.890921 5:0.048756 6:-0.564626 
1 1:0.748935 2:0.025 3:0.874233 4:0.87526 5:0.034454 6:-0.563367 
1 1:0.748935 2:0.03 3:0.923313 4:0.903684 5:0.065242 6:-0.66198 
1 1:0.748935 2:0.035 3:0.923313 4:0.928849 5:0.072847 6:-0.25889 
1 1:0.748935 2:0.04 3:0.90184 4:0.886213 5:0.043119 6:-0.827241 
1 1:0.748935 2:0.045 3:0.895706 4:0.884554 5:0.056806 6:-0.405669 
1 1:0.748935 2:0.05 3:0.957055 4:0.954437 5:0.18032 6:-0.072512 
1 1:0.748935 2:0.055 3:0.923313 4:0.911861 5:0.205293 6:-0.324078 
1 1:0.748935 2:0.065 3:0.91411 4:0.914426 5:0.12093 6:-0.32852 
1 1:0.748935 2:0.07 3:0.898773 4:0.885157 5:0.058414 6:-0.383556 
1 1:0.748935 2:0.075 3:0.91411 4:0.885791 5:0.557184 6:-0.637694 
1 1:0.748935 2:0.08 3:0.957055 4:0.944691 5:0.096634 6:-0.509305 
1 1:0.748935 2:0.085 3:0.911043 4:0.913159 5:0.599481 6:-0.361774 
1 1:0.748935 2:0.09 3:0.92638 4:0.91512 5:0.073527 6:-0.263389 
1 1:0.748935 2:0.095 3:0.93865 4:0.932561 5:0.059424 6:-0.701564 
1 1:0.748935 2:0.1 3:0.92638 4:0.903805 5:0.072595 6:-0.730128 
1 1:0.748935 2:0.105 3:0.920245 4:0.922875 5:0.180632 6:-0.268998 
1 1:0.748935 2:0.11 3:0.895706 4:0.892822 5:0.056876 6:-0.328856 
1 1:0.748935 2:0.115 3:0.858896 4:0.869618 5:0.064315 6:-0.286958 
1 1:0.748935 2:0.12 3:0.892638 4:0.868411 5:0.046367 6:-0.552231 
1 1:0.748935 2:0.125 3:0.917178 4:0.90809 5:0.199189 6:-0.402275 
1 1:0.748935 2:0.13 3:0.944785 4:0.939893 5:0.100035 6:-0.441225 
1 1:0.748935 2:0.135 3:0.892638 4:0.906762 5:0.074484 6:-0.152227 
1 1:0.748935 2:0.14 3:0.935583 4:0.919616 5:0.078586 6:-0.154451 
1 1:0.748935 2:0.145 3:0.95092 4:0.948795 5:0.137457 6:-0.302537 
1 1:0.748935 2:0.15 3:0.92638 4:0.922332 5:0.060722 6:-0.358507 
1 1:0.748935 2:0.155 3:0.895706 4:0.878398 5:0.07358 6:-0.777119 
1 1:0.748935 2:0.16 3:0.904908 4:0.892067 5:0.059065 6:-0.498127 
1 1:0.748935 2:0.165 3:0.947853 4:0.958963 5:0.40081 6:-0.047114 
1 1:0.748935 2:0.17 3:0.889571 4:0.869588 5:0.08769 6:-0.544292 
1 1:0.748935 2:0.175 3:0.941718 4:0.92547 5:0.144817 6:-0.134072 
1 1:0.748935 2:0.18 3:0.90184 4:0.870794 5:0.038635 6:-0.5563 
1 1:0.748935 2:0.185 3:0.93865 4:0.942217 5:0.066584 6:-0.295921 
1 1:0.748935 2:0.19 3:0.917178 4:0.892218 5:0.171689 6:-0.27605 
1 1:0.748935 2:0.195 3:0.981595 4:0.994056 5:0.428666 6:0.255226 
1 1:0.748935 2:0.2 3:0.895706 4:0.879847 5:0.300337 6:-0.371408 
1 1:0.748935 2:0.205 3:0.852761 4:0.862497 5:0.028846 6:-0.460578 
1 1:0.748935 2:0.22 3:0.90184 4:0.884343 5:0.100643 6:-0.570033 
1 1:0.748935 2:0.225 3:0.886503 4:0.884312 5:0.048237 6:-0.143731 
1 1:0.748935 2:0.235 3:0.898773 4:0.879967 5:0.039939 6:-0.792152 
1 1:0.748935 2:0.245 3:0.947853 4:0.93075 5:0.296538 6:0.030039 
1 1:0.748935 2:0.25 3:0.935583 4:0.936001 5:0.131854 6:-0.101584 
1 1:0.748935 2:0.255 3:0.923313 4:0.908754 5:0.067717 6:-0.387612 
1 1:0.748935 2:0.26 3:0.90184 4:0.89436 5:0.079786 6:-0.369611 
1 1:0.748935 2:0.265 3:0.929448 4:0.96008 5:0.166301 6:0.225411 
1 1:0.748935 2:0.27 3:0.920245 4:0.893184 5:0.109786 6:-0.200063 
1 1:0.748935 2:0.275 3:0.932515 4:0.914849 5:0.090308 6:-0.08682 
1 1:0.748935 2:0.28 3:0.932515 4:0.89783 5:0.08718 6:-0.651143 
1 1:0.748935 2:0.285 3:0.90184 4:0.85103 5:0.051832 6:-0.71182 
1 1:0.748935 2:0.29 3:0.907975 4:0.891554 5:0.079265 6:-0.272773 
1 1:0.748935 2:0.295 3:0.886503 4:0.894421 5:0.109936 6:-0.056442 
1 1:0.748935 2:0.3 3:0.923313 4:0.926164 5:0.065001 6:-0.323411 
1 1:0.748935 2:0.305 3:0.929448 4:0.926948 5:0.205018 6:0.111551 
1 1:0.748935 2:0.31 3:0.904908 4:0.884705 5:0.084376 6:-0.497755 
1 1:0.748935 2:0.315 3:0.929448 4:0.901512 5:0.075483 6:-0.393316 
1 1:0.748935 2:0.32 3:0.932515 4:0.942398 5:0.097064 6:0.026456 
1 1:0.748935 2:0.325 3:0.889571 4:0.907034 5:0.095824 6:0.273943 
1 1:0.748935 2:0.33 3:0.923313 4:0.932259 5:0.146205 6:-0.073904 
1 1:0.748935 2:0.345 3:0.868098 4:0.867174 5:0.038179 6:-0.255575 
1 1:0.748935 2:0.35 3:0.957055 4:0.946411 5:0.144032 6:-0.190235 
1 1:0.748935 2:0.36 3:0.932515 4:0.937509 5:0.212615 6:0.030117 
1 1:0.748935 2:0.365 3:0.895706 4:0.887783 5:0.055853 6:-0.144887 
1 1:0.748935 2:0.37 3:0.907975 4:0.91509 5:0.111445 6:0.153736 
1 1:0.748935 2:0.375 3:0.93865 4:0.914607 5:0.140655 6:-0.239325 
1 1:0.748935 2:0.38 3:0.95092 4:0.962343 5:0.192451 6:-0.018746 
1 1:0.748935 2:0.385 3:0.93865 4:0.909719 5:0.099 6:-0.510556 
1 1:0.748935 2:0.39 3:0.90184 4:0.91159 5:0.108559 6:-0.090254 
1 1:0.748935 2:0.395 3:0.895706 4:0.921608 5:0.115062 6:0.323079 
1 1:0.748935 2:0.4 3:0.935583 4:0.942156 5:0.105075 6:0.114422 
1 1:0.748935 2:0.405 3:0.904908 4:0.89768 5:0.135365 6:0.142484 
1 1:0.748935 2:0.41 3:0.858896 4:0.865997 5:0.063946 6:-0.240291 
1 1:0.748935 2:0.415 3:0.904908 4:0.902236 5:0.087109 6:-0.161946 
1 1:0.748935 2:0.42 3:0.932515 4:0.926828 5:0.126488 6:0.114779 
1 1:0.748935 2:0.425 3:0.98773 4:0.97755 5:0.206268 6:-0.073602 
1 1:0.748935 2:0.43 3:0.886503 4:0.881748 5:0.06556 6:-0.343897 
1 1:0.748935 2:0.435 3:0.92638 4:0.942096 5:0.209847 6:0.367141 
1 1:0.748935 2:0.44 3:0.904908 4:0.864729 5:0.116706 6:0.007687 
1 1:0.748935 2:0.445 3:0.941718 4:0.940889 5:0.136821 6:-0.058552 
1 1:0.748935 2:0.45 3:0.91411 4:0.906762 5:0.144622 6:-0.16763 
1 1:0.748935 2:0.455 3:0.923313 4:0.912646 5:0.097575 6:-0.178177 
1 1:0.748935 2:0.46 3:0.93865 4:0.914577 5:0.111286 6:-0.196068 
1 1:0.748935 2:0.465 3:0.96319 4:0.965119 5:0.769454 6:-0.092934 
1 1:0.748935 2:0.47 3:0.944785 4:0.945475 5:0.109696 6:0.092815 
1 1:0.748935 2:0.48 3:0.947853 4:0.933647 5:0.296574 6:0.237042 
1 1:0.748935 2:0.485 3:0.944785 4:0.939742 5:0.145115 6:0.064673 
1 1:0.748935 2:0.49 3:0.889571 4:0.889593 5:0.05617 6:0.045953 
1 1:0.748935 2:0.495 3:0.911043 4:0.897378 5:0.062649 6:-0.384907 
1 1:0.748935 2:0.5 3:0.889571 4:0.887933 5:0.148377 6:0.219065 
1 1:0.748935 2:0.505 3:0.923313 4:0.920159 5:0.225188 6:0.465378 
1 1:0.748935 2:0.51 3:0.911043 4:0.913249 5:0.119646 6:0.082154 
1 1:0.748935 2:0.515 3:0.95092 4:0.91853 5:0.174073 6:-0.072128 
1 1:0.748935 2:0.52 3:0.941718 4:0.945777 5:0.176381 6:0.409795 
1 1:0.748935 2:0.525 3:0.953988 4:0.951359 5:0.116481 6:0.049847 
1 1:0.748935 2:0.53 3:0.895706 4:0.891916 5:0.517158 6:0.196988 
1 1:0.748935 2:0.535 3:0.895706 4:0.88914 5:0.058302 6:0.082873 
1 1:0.748935 2:0.54 3:0.852761 4:0.858423 5:0.06018 6:-0.229639 
1 1:0.748935 2:0.545 3:0.92638 4:0.948342 5:0.2844 6:0.373048 
1 1:0.748935 2:0.55 3:0.895706 4:0.867868 5:0.136619 6:0.09113 
1 1:0.748935 2:0.555 3:0.941718 4:0.936001 5:0.673441 6:0.346288 
1 1:0.748935 2:0.56 3:0.932515 4:0.903895 5:0.07708 6:0.151465 
1 1:0.748935 2:0.565 3:0.929448 4:0.897529 5:0.090637 6:-0.122026 
1 1:0.748935 2:0.57 3:0.944785 4:0.950122 5:0.436832 6:0.318764 
1 1:0.748935 2:0.575 3:0.966258 4:0.965903 5:0.255047 6:0.30571 
1 1:0.748935 2:0.58 3:0.93865 4:0.905766 5:0.102715 6:-0.009549 
1 1:0.748935 2:0.585 3:0.969325 4:0.973688 5:0.259917 6:0.481632 
1 1:0.748935 2:0.59 3:0.947853 4:0.940708 5:0.255001 6:0.456944 
1 1:0.748935 2:0.595 3:0.911043 4:0.912435 5:0.141987 6:0.08948 
1 1:0.748935 2:0.6 3:0.895706 4:0.885882 5:0.165697 6:0.117024 
1 1:0.748935 2:0.605 3:0.898773 4:0.885338 5:0.113061 6:-0.019845 
1 1:0.748935 2:0.61 3:0.941718 4:0.942277 5:0.695285 6:0.453535 
1 1:0.748935 2:0.615 3:0.911043 4:0.921638 5:0.526191 6:0.307395 
1 1:0.748935 2:0.62 3:0.972393 4:0.974382 5:0.36975 6:0.724687 
1 1:0.748935 2:0.63 3:0.861963 4:0.832051 5:0.096849 6:-0.12266 
1 1:0.748935 2:0.635 3:0.886503 4:0.88208 5:0.098861 6:0.059936 
1 1:0.748935 2:0.64 3:0.898773 4:0.924354 5:0.184076 6:0.434109 
1 1:0.748935 2:0.645 3:0.895706 4:0.912857 5:0.144545 6:0.501312 
1 1:0.748935 2:0.65 3:0.935583 4:0.931324 5:0.07877 6:0.15686 
1 1:0.748935 2:0.655 3:0.90184 4:0.902417 5:0.39201 6:0.470172 
1 1:0.748935 2:0.66 3:0.917178 4:0.924233 5:0.247402 6:0.509618 
1 1:0.748935 2:0.665 3:0.923313 4:0.915603 5:0.265842 6:0.280614 
1 1:0.748935 2:0.67 3:0.895706 4:0.88733 5:0.215014 6:0.025142 
1 1:0.748935 2:0.68 3:0.932515 4:0.923478 5:0.103198 6:0.150168 
1 1:0.748935 2:0.685 3:0.917178 4:0.887058 5:0.088217 6:0.108097 
1 1:0.748935 2:0.69 3:0.920245 4:0.914366 5:0.619182 6:0.192733 
1 1:0.748935 2:0.695 3:0.923313 4:0.910594 5:0.128946 6:0.286335 
1 1:0.748935 2:0.7 3:0.935583 4:0.92031 5:0.179897 6:0.069085 
1 1:0.748935 2:0.71 3:0.932515 4:0.908693 5:0.171055 6:0.407465 
1 1:0.748935 2:0.715 3:0.93865 4:0.940708 5:0.230431 6:0.237615 
1 1:0.748935 2:0.725 3:0.923313 4:0.90812 5:0.212263 6:0.426983 
1 1:0.748935 2:0.73 3:0.90184 4:0.905283 5:0.090804 6:0.132842 
1 1:0.748935 2:0.735 3:0.93865 4:0.922603 5:0.490016 6:0.558123 
1 1:0.748935 2:0.74 3:0.90184 4:0.913461 5:0.370433 6:0.488174 
1 1:0.748935 2:0.745 3:0.923313 4:0.917987 5:0.143581 6:0.122799 
1 1:0.748935 2:0.75 3:0.92638 4:0.90115 5:0.171387 6:0.295342 
1 1:0.748935 2:0.755 3:0.90184 4:0.901119 5:0.130269 6:0.473158 
1 1:0.748935 2:0.76 3:0.895706 4:0.870282 5:0.063336 6:0.070137 
1 1:0.748935 2:0.765 3:0.91411 4:0.920763 5:0.152757 6:0.504324 
1 1:0.748935 2:0.775 3:0.95092 4:0.957092 5:0.351073 6:0.952966 
1 1:0.748935 2:0.78 3:0.895706 4:0.871398 5:0.338836 6:0.206621 
1 1:0.748935 2:0.785 3:0.92638 4:0.902115 5:0.124001 6:-0.040111 
1 1:0.748935 2:0.79 3:1 4:1 5:0.610223 6:0.882142 
1 1:0.748935 2:0.795 3:0.898773 4:0.893606 5:0.218576 6:0.351709 
1 1:0.748935 2:0.8 3:0.889571 4:0.877946 5:0.084103 6:0.136828 
1 1:0.748935 2:0.805 3:0.920245 4:0.931535 5:0.122431 6:0.56282 
1 1:0.748935 2:0.81 3:0.90184 4:0.898072 5:0.143629 6:0.299575 
1 1:0.748935 2:0.82 3:0.923313 4:0.927673 5:0.203282 6:0.456947 
1 1:0.748935 2:0.825 3:0.923313 4:0.900848 5:0.273885 6:0.124829 
1 1:0.748935 2:0.83 3:0.957055 4:0.970822 5:0.270703 6:0.62816 
1 1:0.748935 2:0.835 3:0.911043 4:0.889502 5:0.241749 6:0.171282 
1 1:0.748935 2:0.84 3:0.898773 4:0.899218 5:0.673754 6:0.53161 
1 1:0.748935 2:0.845 3:0.904908 4:0.895175 5:0.093293 6:0.339418 
1 1:0.748935 2:0.85 3:0.917178 4:0.905374 5:0.196144 6:0.346041 
1 1:0.748935 2:0.855 3:0.90184 4:0.875471 5:0.080821 6:0.088826 
1 1:0.748935 2:0.86 3:0.929448 4:0.896171 5:0.11445 6:-0.181792 
1 1:0.748935 2:0.865 3:0.889571 4:0.874385 5:0.167669 6:0.559233 
1 1:0.748935 2:0.87 3:0.91411 4:0.867717 5:0.10865 6:0.097505 
1 1:0.748935 2:0.875 3:0.93865 4:0.917413 5:0.367196 6:0.349035 
1 1:0.748935 2:0.88 3:0.91411 4:0.915603 5:0.148168 6:0.39026 
1 1:0.748935 2:0.885 3:0.947853 4:0.947225 5:0.623604 6:0.709128 
1 1:0.748935 2:0.89 3:0.889571 4:0.874959 5:0.082972 6:0.192412 
1 1:0.748935 2:0.895 3:0.90184 4:0.912224 5:0.627087 6:0.555513 
1 1:0.748935 2:0.9 3:0.960123 4:0.962614 5:0.291732 6:0.693425 
1 1:0.748935 2:0.91 3:0.898773 4:0.897649 5:0.101243 6:0.342272 
1 1:0.748935 2:0.915 3:0.892638 4:0.877312 5:0.211784 6:0.470467 
1 1:0.748935 2:0.92 3:0.929448 4:0.94288 5:0.180023 6:0.653544 
1 1:0.748935 2:0.925 3:0.920245 4:0.932531 5:0.472028 6:0.723148 
1 1:0.748935 2:0.93 3:0.957055 4:0.94795 5:0.587133 6:0.776676 
1 1:0.748935 2:0.935 3:0.880368 4:0.877041 5:0.125147 6:0.478621 
1 1:0.748935 2:0.94 3:0.96319 4:0.976193 5:0.376974 6:1 
1 1:0.748935 2:0.945 3:0.95092 4:0.948463 5:0.786057 6:0.687346 
1 1:0.748935 2:0.955 3:0.911043 4:0.902115 5:0.289475 6:0.372185 
1 1:0.748935 2:0.96 3:0.923313 4:0.918862 5:0.320794 6:0.958959 
1 1:0.748935 2:0.965 3:0.932515 4:0.942277 5:1 6:0.748485 
1 1:0.748935 2:0.98 3:0.892638 4:0.858061 5:0.402131 6:0.451543 
1 1:0.748935 2:0.99 3:0.911043 4:0.902055 5:0.179855 6:0.428927 
1 1:0.748935 2:0.995 3:0.904908 4:0.886153 5:0.109037 6:0.435031 
1 1:0.748935 2:1 3:0.93865 4:0.920853 5:0.380696 6:0.689185 
1 1:0.748935 2:0.005 3:0.911043 4:0.893033 5:0.090572 6:-0.361031 
1 1:0.501996 2:0.01 3:0.912587 4:0.92916 5:0.039498 6:-0.587081 
1 1:0.501996 2:0.015 3:0.905594 4:0.923756 5:0.037127 6:-0.425785 
1 1:0.501996 2:0.02 3:0.881119 4:0.908476 5:0.024193 6:-0.304346 
1 1:0.501996 2:0.025 3:0.951049 4:0.958748 5:0.040714 6:-0.620105 
1 1:0.501996 2:0.03 3:0.909091 4:0.94063 5:0.067106 6:-0.184073 
1 1:0.501996 2:0.035 3:0.905594 4:0.927216 5:0.060291 6:-0.175891 
1 1:0.501996 2:0.04 3:0.867133 4:0.877449 5:0.039562 6:-0.324958 
1 1:0.501996 2:0.045 3:0.842657 4:0.856182 5:0.088171 6:-0.321732 
1 1:0.501996 2:0.05 3:0.93007 4:0.926711 5:0.044112 6:-0.563107 
1 1:0.501996 2:0.055 3:0.888112 4:0.893779 5:0.021347 6:-0.269389 
1 1:0.501996 2:0.06 3:0.846154 4:0.886198 5:0.030063 6:-0.260755 
1 1:0.501996 2:0.075 3:0.979021 4:0.966252 5:0.05782 6:-0.595098 
1 1:0.501996 2:0.08 3:0.91958 4:0.960886 5:0.054514 6:-0.10411 
1 1:0.501996 2:0.085 3:0.905594 4:0.885342 5:0.02467 6:-0.471706 
1 1:0.501996 2:0.09 3:0.874126 4:0.916641 5:0.115365 6:-0.188286 
1 1:0.501996 2:0.1 3:0.863636 4:0.866602 5:0.070261 6:-0.448061 
1 1:0.501996 2:0.11 3:0.877622 4:0.895412 5:0.06765 6:-0.190565 
1 1:0.501996 2:0.12 3:0.846154 4:0.843818 5:0.03016 6:-0.20905 
1 1:0.501996 2:0.125 3:0.888112 4:0.868624 5:0.061007 6:-0.414063 
1 1:0.501996 2:0.145 3:0.888112 4:0.847045 5:0.028819 6:-0.374566 
1 1:0.501996 2:0.16 3:0.944056 4:0.916524 5:0.078958 6:-0.332903 
1 1:0.501996 2:0.165 3:0.891608 4:0.880754 5:0.02751 6:-0.378006 
1 1:0.501996 2:0.17 3:0.856643 4:0.87916 5:0.17435 6:-0.443606 
1 1:0.501996 2:0.175 3:0.91958 4:0.905638 5:0.024858 6:-0.193563 
1 1:0.501996 2:0.18 3:0.947552 4:0.957737 5:0.041655 6:-0.164196 
1 1:0.501996 2:0.185 3:0.867133 4:0.87916 5:0.046408 6:-0.269127 
1 1:0.501996 2:0.19 3:0.902098 4:0.931687 5:0.046385 6:-0.112936 
1 1:0.501996 2:0.195 3:0.888112 4:0.920334 5:0.070729 6:-0.053327 
1 1:0.501996 2:0.2 3:0.891608 4:0.873095 5:0.051765 6:-0.302873 
1 1:0.501996 2:0.205 3:0.91958 4:0.925739 5:0.068688 6:0.001338 
1 1:0.501996 2:0.21 3:0.923077 4:0.923095 5:0.079193 6:-0.293382 
1 1:0.501996 2:0.215 3:0.867133 4:0.922473 5:0.105731 6:-0.095277 
1 1:0.501996 2:0.225 3:0.877622 4:0.878266 5:0.046512 6:0.013256 
1 1:0.501996 2:0.23 3:0.912587 4:0.96528 5:0.087129 6:-0.113952 
1 1:0.501996 2:0.235 3:0.870629 4:0.846967 5:0.074233 6:-0.0906 
1 1:0.501996 2:0.25 3:0.835664 4:0.875078 5:0.050519 6:0.147599 
1 1:0.501996 2:0.255 3:0.884615 4:0.880988 5:0.044782 6:-0.391229 
1 1:0.501996 2:0.26 3:0.912587 4:0.914347 5:0.063313 6:-0.290486 
1 1:0.501996 2:0.265 3:0.902098 4:0.923561 5:0.199301 6:0.159107 
1 1:0.501996 2:0.27 3:0.877622 4:0.854588 5:0.05542 6:-0.166556 
1 1:0.501996 2:0.275 3:0.940559 4:0.927799 5:0.086385 6:-0.13485 
1 1:0.501996 2:0.285 3:0.793706 4:0.845373 5:0.042055 6:0.170693 
1 1:0.501996 2:0.29 3:0.867133 4:0.855715 5:0.076968 6:-0.242304 
1 1:0.501996 2:0.295 3:0.811189 4:0.824806 5:0.083514 6:-0.178957 
1 1:0.501996 2:0.3 3:0.856643 4:0.865124 5:0.036153 6:-0.119971 
1 1:0.501996 2:0.305 3:0.884615 4:0.900583 5:0.079944 6:0.159822 
1 1:0.501996 2:0.31 3:0.877622 4:0.893235 5:0.046505 6:0.134133 
1 1:0.501996 2:0.315 3:0.870629 4:0.875117 5:0.063432 6:-0.156953 
1 1:0.501996 2:0.32 3:0.835664 4:0.830599 5:0.046817 6:-0.173965 
1 1:0.501996 2:0.325 3:0.86014 4:0.846462 5:0.049822 6:-0.059832 
1 1:0.501996 2:0.33 3:0.951049 4:0.990202 5:0.070788 6:0.187834 
1 1:0.501996 2:0.335 3:0.909091 4:0.888297 5:0.11714 6:-0.35914 
1 1:0.501996 2:0.34 3:0.898601 4:0.911159 5:0.052831 6:-0.115186 
1 1:0.501996 2:0.345 3:0.839161 4:0.835148 5:0.048202 6:0.017844 
1 1:0.501996 2:0.35 3:0.856643 4:0.826905 5:0.023935 6:-0.148105 
1 1:0.501996 2:0.355 3:0.874126 4:0.863608 5:0.056643 6:0.076452 
1 1:0.501996 2:0.36 3:0.912587 4:0.925194 5:0.098056 6:-0.152082 
1 1:0.501996 2:0.365 3:0.839161 4:0.868857 5:0.11762 6:0.213084 
1 1:0.501996 2:0.37 3:0.839161 4:0.854432 5:0.033461 6:-0.128405 
1 1:0.501996 2:0.375 3:0.86014 4:0.843896 5:0.093814 6:-0.123476 
1 1:0.501996 2:0.38 3:0.839161 4:0.823834 5:0.03262 6:-0.242123 
1 1:0.501996 2:0.385 3:0.909091 4:0.930054 5:0.070285 6:0.117048 
1 1:0.501996 2:0.39 3:0.84965 4:0.866174 5:0.023126 6:-0.115069 
1 1:0.501996 2:0.395 3:0.895105 4:0.87776 5:0.038202 6:-0.30143 
1 1:0.501996 2:0.4 3:0.818182 4:0.852877 5:0.098246 6:-0.058369 
1 1:0.501996 2:0.405 3:0.888112 4:0.903771 5:0.145489 6:-0.016766 
1 1:0.501996 2:0.41 3:0.916084 4:0.908281 5:0.025964 6:-0.239108 
1 1:0.501996 2:0.415 3:0.888112 4:0.895801 5:0.033351 6:0.011031 
1 1:0.501996 2:0.42 3:0.856643 4:0.867691 5:0.048769 6:-0.015345 
1 1:0.501996 2:0.425 3:0.916084 4:0.910148 5:0.159121 6:0.198277 
1 1:0.501996 2:0.43 3:0.926573 4:0.965863 5:0.097729 6:0.371661 
1 1:0.501996 2:0.435 3:0.958042 4:0.982543 5:0.138088 6:0.224557 
1 1:0.501996 2:0.44 3:0.884615 4:0.890319 5:0.033591 6:-0.05294 
1 1:0.501996 2:0.445 3:0.832168 4:0.813802 5:0.02358 6:-0.219416 
1 1:0.501996 2:0.45 3:0.888112 4:0.902838 5:0.062924 6:0.134434 
1 1:0.501996 2:0.455 3:0.905594 4:0.920218 5:0.041977 6:-0.151317 
1 1:0.501996 2:0.46 3:0.93007 4:0.954471 5:0.197656 6:0.285186 
1 1:0.501996 2:0.465 3:0.776224 4:0.802372 5:0.019219 6:-0.288313 
1 1:0.501996 2:0.47 3:0.863636 4:0.854277 5:0.046758 6:-0.14665 
1 1:0.501996 2:0.475 3:0.821678 4:0.811003 5:0.017265 6:-0.276366 
1 1:0.501996 2:0.48 3:0.828671 4:0.857076 5:0.060212 6:0.289042 
1 1:0.501996 2:0.485 3:0.898601 4:0.943974 5:0.103854 6:0.586787 
1 1:0.501996 2:0.49 3:0.877622 4:0.879277 5:0.062721 6:-0.033545 
1 1:0.501996 2:0.5 3:0.912587 4:0.905249 5:0.053369 6:-0.10573 
1 1:0.501996 2:0.505 3:0.870629 4:0.840708 5:0.103285 6:0.12331 
1 1:0.501996 2:0.51 3:0.895105 4:0.904627 5:0.427274 6:0.332243 
1 1:0.501996 2:0.515 3:0.846154 4:0.825272 5:0.079292 6:0.160365 
1 1:0.501996 2:0.52 3:0.895105 4:0.907426 5:0.136043 6:0.033885 
1 1:0.501996 2:0.525 3:0.842657 4:0.840202 5:0.130843 6:0.048778 
1 1:0.501996 2:0.53 3:0.905594 4:0.902411 5:0.077533 6:-0.073291 
1 1:0.501996 2:0.535 3:0.933566 4:0.912014 5:0.055036 6:-0.140418 
1 1:0.501996 2:0.54 3:0.856643 4:0.888414 5:0.065908 6:0.073035 
1 1:0.501996 2:0.545 3:0.846154 4:0.858515 5:0.17337 6:0.586494 
1 1:0.501996 2:0.55 3:0.842657 4:0.835381 5:0.037581 6:-0.274666 
1 1:0.501996 2:0.555 3:0.856643 4:0.828383 5:0.034896 6:-0.146992 
1 1:0.501996 2:0.56 3:0.909091 4:0.887792 5:0.066418 6:0.110495 
1 1:0.501996 2:0.565 3:0.902098 4:0.888686 5:0.037363 6:-0.124465 
1 1:0.501996 2:0.57 3:0.884615 4:0.889036 5:0.116262 6:0.44379 
1 1:0.501996 2:0.575 3:0.870629 4:0.841174 5:0.051546 6:0.14978 
1 1:0.501996 2:0.58 3:0.86014 4:0.846851 5:0.054543 6:-0.004192 
1 1:0.501996 2:0.585 3:0.863636 4:0.876516 5:0.101569 6:0.227447 
1 1:0.501996 2:0.59 3:0.870629 4:0.834176 5:0.054982 6:-0.072023 
1 1:0.501996 2:0.595 3:0.891608 4:0.91353 5:0.122977 6:0.184941 
1 1:0.501996 2:0.6 3:0.870629 4:0.861936 5:0.022294 6:-0.158461 
1 1:0.501996 2:0.605 3:0.909091 4:0.939813 5:0.130584 6:0.209594 
1 1:0.501996 2:0.61 3:0.853147 4:0.886042 5:0.065744 6:0.230906 
1 1:0.501996 2:0.615 3:0.84965 4:0.866913 5:0.060638 6:0.191305 
1 1:0.501996 2:0.62 3:0.916084 4:0.900311 5:0.108064 6:0.398301 
1 1:0.501996 2:0.625 3:0.884615 4:0.910614 5:0.188977 6:0.168384 
1 1:0.501996 2:0.63 3:0.902098 4:0.941874 5:0.106826 6:0.549541 
1 1:0.501996 2:0.635 3:0.888112 4:0.9 5:0.074722 6:0.231998 
1 1:0.501996 2:0.64 3:0.853147 4:0.85797 5:0.204758 6:0.454459 
1 1:0.501996 2:0.645 3:0.888112 4:0.863297 5:0.095449 6:0.182605 
1 1:0.501996 2:0.65 3:0.881119 4:0.909798 5:0.153839 6:-0.01128 
1 1:0.501996 2:0.655 3:0.881119 4:0.884526 5:0.081422 6:0.338842 
1 1:0.501996 2:0.66 3:0.846154 4:0.882076 5:0.128881 6:0.545393 
1 1:0.501996 2:0.665 3:0.933566 4:0.939813 5:0.104473 6:0.254336 
1 1:0.501996 2:0.67 3:0.909091 4:0.932348 5:0.088304 6:0.267332 
1 1:0.501996 2:0.675 3:0.881119 4:0.882815 5:0.16564 6:0.362102 
1 1:0.501996 2:0.68 3:0.84965 4:0.85 5:0.053378 6:0.217413 
1 1:0.501996 2:0.685 3:0.968531 4:1 5:0.111635 6:0.562164 
1 1:0.501996 2:0.69 3:0.84965 4:0.837403 5:0.175919 6:0.362863 
1 1:0.501996 2:0.695 3:0.940559 4:0.881065 5:0.295536 6:0.306855 
1 1:0.501996 2:0.7 3:0.91958 4:0.906337 5:0.111003 6:0.305908 
1 1:0.501996 2:0.705 3:0.846154 4:0.930443 5:1 6:0.537077 
1 1:0.501996 2:0.71 3:0.933566 4:0.977022 5:0.114398 6:0.689462 
1 1:0.501996 2:0.715 3:0.902098 4:0.913764 5:0.1212 6:0.775087 
1 1:0.501996 2:0.72 3:0.888112 4:0.92014 5:0.311344 6:0.709323 
1 1:0.501996 2:0.73 3:0.821678 4:0.811353 5:0.04642 6:0.282502 
1 1:0.501996 2:0.735 3:0.898601 4:0.910459 5:0.076774 6:0.368999 
1 1:0.501996 2:0.74 3:0.895105 4:0.927566 5:0.17493 6:0.817964 
1 1:0.501996 2:0.745 3:0.835664 4:0.856765 5:0.053582 6:0.182082 
1 1:0.501996 2:0.75 3:0.77972 4:0.774572 5:0.06383 6:0.269638 
1 1:0.501996 2:0.755 3:0.853147 4:0.856843 5:0.296435 6:0.456758 
1 1:0.501996 2:0.76 3:0.874126 4:0.902177 5:0.462048 6:0.580811 
1 1:0.501996 2:0.765 3:0.863636 4:0.835148 5:0.089394 6:0.070628 
1 1:0.501996 2:0.77 3:0.93007 4:0.919051 5:0.167941 6:0.445522 
1 1:0.501996 2:0.775 3:0.853147 4:0.852255 5:0.093352 6:0.320854 
1 1:0.501996 2:0.78 3:0.863636 4:0.844246 5:0.066055 6:0.298989 
1 1:0.501996 2:0.785 3:0.965035 4:0.931415 5:0.867338 6:0.249568 
1 1:0.501996 2:0.79 3:0.84965 4:0.854005 5:0.099231 6:0.322572 
1 1:0.501996 2:0.795 3:0.909091 4:0.933204 5:0.175169 6:0.558612 
1 1:0.501996 2:0.8 3:0.870629 4:0.882115 5:0.164968 6:0.400867 
1 1:0.501996 2:0.805 3:0.863636 4:0.894984 5:0.151973 6:0.690639 
1 1:0.501996 2:0.815 3:0.856643 4:0.884837 5:0.13057 6:0.869095 
1 1:0.501996 2:0.82 3:0.863636 4:0.901983 5:0.175356 6:0.710051 
1 1:0.501996 2:0.825 3:0.814685 4:0.79444 5:0.06125 6:0.093828 
1 1:0.501996 2:0.83 3:0.828671 4:0.83853 5:0.053727 6:0.165734 
1 1:0.501996 2:0.835 3:0.818182 4:0.818079 5:0.077278 6:0.3615 
1 1:0.501996 2:0.84 3:0.923077 4:0.919285 5:0.11534 6:0.413275 
1 1:0.501996 2:0.845 3:0.842657 4:0.852333 5:0.109767 6:0.512167 
1 1:0.501996 2:0.85 3:0.835664 4:0.799961 5:0.028666 6:0.020549 
1 1:0.501996 2:0.855 3:0.937063 4:0.981765 5:0.1245 6:0.311213 
1 1:0.501996 2:0.86 3:0.846154 4:0.869207 5:0.05488 6:0.256282 
1 1:0.501996 2:0.865 3:0.818182 4:0.846034 5:0.099486 6:0.430236 
1 1:0.501996 2:0.87 3:0.877622 4:0.894246 5:0.081195 6:0.42702 
1 1:0.501996 2:0.875 3:0.912587 4:0.904666 5:0.082845 6:0.28426 
1 1:0.501996 2:0.88 3:0.867133 4:0.890202 5:0.546084 6:0.718534 
1 1:0.501996 2:0.885 3:0.856643 4:0.841835 5:0.119552 6:0.425324 
1 1:0.501996 2:0.89 3:0.867133 4:0.876011 5:0.837557 6:0.576011 
1 1:0.501996 2:0.895 3:0.902098 4:0.924883 5:0.121139 6:0.490904 
1 1:0.501996 2:0.9 3:0.895105 4:0.932076 5:0.160986 6:0.773471 
1 1:0.501996 2:0.905 3:0.912587 4:0.935964 5:0.822403 6:0.583965 
1 1:0.501996 2:0.91 3:0.835664 4:0.845762 5:0.112076 6:0.624948 
1 1:0.501996 2:0.915 3:0.891608 4:0.916019 5:0.068611 6:0.407337 
1 1:0.501996 2:0.92 3:0.940559 4:0.966407 5:0.172409 6:0.713774 
1 1:0.501996 2:0.925 3:0.828671 4:0.850894 5:0.151161 6:0.683474 
1 1:0.501996 2:0.93 3:0.842657 4:0.876128 5:0.198965 6:0.802067 
1 1:0.501996 2:0.935 3:0.874126 4:0.885148 5:0.357035 6:0.631533 
1 1:0.501996 2:0.94 3:0.895105 4:0.927177 5:0.239069 6:0.952053 
1 1:0.501996 2:0.945 3:0.867133 4:0.873717 5:0.103737 6:0.355336 
1 1:0.501996 2:0.95 3:0.853147 4:0.860537 5:0.151633 6:0.781811 
1 1:0.501996 2:0.955 3:0.821678 4:0.840474 5:0.099833 6:0.465722 
1 1:0.501996 2:0.96 3:0.937063 4:0.891485 5:0.715974 6:0.783247 
1 1:0.501996 2:0.965 3:0.863636 4:0.875855 5:0.332498 6:0.732154 
1 1:0.501996 2:0.975 3:0.902098 4:0.945684 5:0.397767 6:0.917477 
1 1:0.501996 2:0.98 3:0.902098 4:0.894051 5:0.105001 6:0.548519 
1 1:0.501996 2:0.985 3:0.832168 4:0.863997 5:0.152056 6:0.696491 
1 1:0.501996 2:0.99 3:0.874126 4:0.896034 5:0.911782 6:0.768087 
1 1:0.501996 2:0.995 3:0.832168 4:0.824572 5:0.034972 6:0.40988 
1 1:0.501996 2:1 3:0.895105 4:0.922939 5:0.695863 6:0.686068 
1 1:0.501996 2:0.005 3:0.888112 4:0.931299 5:0.046824 6:-0.421934 
1 1:0.501996 2:0.01 3:1 4:0.994596 5:0.066191 6:-0.523659 
1 1:0.501996 2:0.02 3:0.902098 4:0.925039 5:0.031699 6:-0.424586 
1 1:0.501996 2:0.025 3:0.909091 4:0.939697 5:0.033386 6:-0.358486 
1 1:0.501996 2:0.03 3:0.877622 4:0.89098 5:0.025975 6:-0.282523 
1 1:0.501996 2:0.04 3:0.944056 4:0.985575 5:0.095154 6:-0.254136 
1 1:0.501996 2:0.045 3:0.898601 4:0.929044 5:0.034349 6:-0.408307 
1 1:0.501996 2:0.055 3:0.874126 4:0.8771 5:0.027423 6:-0.27086 
1 1:0.501996 2:0.065 3:0.835664 4:0.840008 5:0.742128 6:-0.174072 
1 1:0.501996 2:0.07 3:0.909091 4:0.951788 5:0.033744 6:-0.254755 
1 1:0.501996 2:0.08 3:0.793706 4:0.796695 5:0.061041 6:-0.193611 
1 1:0.501996 2:0.085 3:0.867133 4:0.894829 5:0.03777 6:-0.315157 
1 1:0.501996 2:0.095 3:0.818182 4:0.818974 5:0.03596 6:-0.14658 
1 1:0.501996 2:0.1 3:0.84965 4:0.859759 5:0.152391 6:-0.212125 
1 1:0.501996 2:0.11 3:0.937063 4:0.960459 5:0.148418 6:-0.202561 
1 1:0.501996 2:0.115 3:0.909091 4:0.921617 5:0.066907 6:-0.264688 
1 1:0.501996 2:0.12 3:0.828671 4:0.849883 5:0.04997 6:-0.149993 
1 1:0.501996 2:0.125 3:0.898601 4:0.915086 5:0.044492 6:-0.535322 
1 1:0.501996 2:0.135 3:0.832168 4:0.813297 5:0.044904 6:-0.101378 
1 1:0.501996 2:0.14 3:0.874126 4:0.888647 5:0.043761 6:-0.336105 
1 1:0.501996 2:0.145 3:0.905594 4:0.927644 5:0.042849 6:-0.303656 
1 1:0.501996 2:0.15 3:0.79021 4:0.793585 5:0.073839 6:0.063886 
1 1:0.501996 2:0.155 3:0.923077 4:0.959215 5:0.07271 6:-0.016969 
1 1:0.501996 2:0.16 3:0.874126 4:0.916174 5:0.041527 6:-0.076914 
1 1:0.501996 2:0.165 3:0.874126 4:0.860653 5:0.216843 6:-0.269107 
1 1:0.501996 2:0.17 3:0.821678 4:0.837053 5:0.042424 6:-0.208907 
1 1:0.501996 2:0.175 3:0.916084 4:0.936198 5:0.045093 6:-0.426492 
1 1:0.501996 2:0.18 3:0.863636 4:0.927177 5:0.071113 6:-0.004775 
1 1:0.501996 2:0.185 3:0.91958 4:0.933048 5:0.052958 6:-0.215256 
1 1:0.501996 2:0.195 3:0.965035 4:0.967379 5:0.084301 6:-0.037993 
1 1:0.501996 2:0.2 3:0.863636 4:0.836314 5:0.02814 6:-0.29226 
1 1:0.501996 2:0.205 3:0.853147 4:0.892185 5:0.24517 6:0.144317 
1 1:0.501996 2:0.21 3:0.895105 4:0.852644 5:0.029004 6:-0.324044 
1 1:0.501996 2:0.22 3:0.867133 4:0.894946 5:0.047532 6:-0.151354 
1 1:0.501996 2:0.225 3:0.902098 4:0.925233 5:0.283935 6:0.099462 
1 1:0.501996 2:0.23 3:0.881119 4:0.837908 5:0.032611 6:-0.373449 
1 1:0.501996 2:0.235 3:0.895105 4:0.909992 5:0.035084 6:-0.304412 
1 1:0.501996 2:0.24 3:0.926573 4:0.913647 5:0.067929 6:-0.204855 
1 1:0.501996 2:0.245 3:0.916084 4:0.921734 5:0.040841 6:-0.267936 
1 1:0.501996 2:0.25 3:0.912587 4:0.937325 5:0.065793 6:0.067049 
1 1:0.501996 2:0.255 3:0.842657 4:0.844323 5:0.034601 6:-0.087188 
1 1:0.501996 2:0.26 3:0.940559 4:0.910964 5:0.069487 6:-0.225246 
1 1:0.501996 2:0.265 3:0.856643 4:0.849767 5:0.022383 6:-0.288168 
1 1:0.501996 2:0.275 3:0.888112 4:0.947201 5:0.13161 6:0.025581 
1 1:0.501996 2:0.28 3:0.828671 4:0.833748 5:0.047055 6:-0.132053 
1 1:0.501996 2:0.285 3:0.937063 4:0.98056 5:0.082877 6:-0.028076 
1 1:0.501996 2:0.29 3:0.912587 4:0.902955 5:0.155323 6:-0.167024 
1 1:0.501996 2:0.295 3:0.867133 4:0.864425 5:0.025285 6:-0.275708 
1 1:0.501996 2:0.3 3:0.902098 4:0.863764 5:0.038694 6:-0.261312 
1 1:0.501996 2:0.305 3:0.821678 4:0.809759 5:0.035666 6:-0.205808 
1 1:0.501996 2:0.31 3:0.905594 4:0.888142 5:0.025421 6:-0.386539 
1 1:0.501996 2:0.315 3:0.874126 4:0.897667 5:0.053436 6:0.136863 
1 1:0.501996 2:0.32 3:0.891608 4:0.94689 5:0.099795 6:0.203026 
1 1:0.501996 2:0.325 3:0.811189 4:0.852061 5:0.032383 6:-0.078438 
1 1:0.501996 2:0.33 3:0.895105 4:0.899883 5:0.030211 6:-0.125666 
1 1:0.501996 2:0.335 3:0.874126 4:0.934215 5:0.078174 6:0.147511 
1 1:0.501996 2:0.34 3:0.912587 4:0.909603 5:0.059742 6:-0.106037 
1 1:0.501996 2:0.345 3:0.863636 4:0.856221 5:0.029313 6:-0.100887 
1 1:0.501996 2:0.35 3:0.84965 4:0.822084 5:0.065316 6:0.078413 
1 1:0.501996 2:0.355 3:0.902098 4:0.907504 5:0.042476 6:-0.210647 
1 1:0.501996 2:0.36 3:0.877622 4:0.925894 5:0.054288 6:-0.04367 
1 1:0.501996 2:0.365 3:0.863636 4:0.864852 5:0.028794 6:-0.202947 
1 1:0.501996 2:0.37 3:0.888112 4:0.88923 5:0.213224 6:-0.017439 
1 1:0.501996 2:0.375 3:0.902098 4:0.926672 5:0.056629 6:-0.050217 
1 1:0.501996 2:0.38 3:0.905594 4:0.892418 5:0.050617 6:-0.084735 
1 1:0.501996 2:0.385 3:0.828671 4:0.8271 5:0.016848 6:0.027022 
1 1:0.501996 2:0.39 3:0.842657 4:0.865397 5:0.205951 6:-0.232633 
1 1:0.501996 2:0.395 3:0.91958 4:0.960498 5:0.072765 6:0.020942 
1 1:0.501996 2:0.4 3:0.842657 4:0.814658 5:0.033572 6:-0.330365 
1 1:0.501996 2:0.405 3:0.856643 4:0.837636 5:0.034644 6:-0.24792 
1 1:0.501996 2:0.41 3:0.867133 4:0.873484 5:0.049931 6:-0.300401 
1 1:0.501996 2:0.415 3:0.895105 4:0.863297 5:0.039926 6:-0.219965 
1 1:0.501996 2:0.42 3:0.839161 4:0.888764 5:0.062746 6:0.08058 
1 1:0.501996 2:0.425 3:0.933566 4:0.983359 5:0.125253 6:0.247257 
1 1:0.501996 2:0.43 3:0.853147 4:0.881182 5:0.072898 6:0.15008 
1 1:0.501996 2:0.435 3:0.870629 4:0.849611 5:0.054091 6:-0.036267 
1 1:0.501996 2:0.44 3:0.884615 4:0.896617 5:0.089874 6:0.178852 
1 1:0.501996 2:0.445 3:0.888112 4:0.91423 5:0.095818 6:0.054576 
1 1:0.501996 2:0.45 3:0.888112 4:0.861897 5:0.057127 6:-0.220347 
1 1:0.501996 2:0.455 3:0.86014 4:0.885187 5:0.169464 6:0.283787 
1 1:0.501996 2:0.46 3:0.842657 4:0.869285 5:0.046792 6:0.24081 
1 1:0.501996 2:0.465 3:0.888112 4:0.911936 5:0.027586 6:-0.05951 
1 1:0.501996 2:0.47 3:0.804196 4:0.778383 5:0.044933 6:-0.041725 
1 1:0.501996 2:0.475 3:0.853147 4:0.85867 5:0.026049 6:-0.152573 
1 1:0.501996 2:0.48 3:0.86014 4:0.849883 5:0.061275 6:-0.036867 
1 1:0.501996 2:0.485 3:0.895105 4:0.916757 5:0.782241 6:0.185956 
1 1:0.501996 2:0.49 3:0.909091 4:0.944207 5:0.068605 6:0.126846 
1 1:0.501996 2:0.495 3:0.923077 4:0.965008 5:0.195909 6:0.288577 
1 1:0.501996 2:0.5 3:0.863636 4:0.876788 5:0.060872 6:-0.014696 
1 1:0.501996 2:0.505 3:0.86014 4:0.890474 5:0.039823 6:0.07768 
1 1:0.501996 2:0.51 3:0.944056 4:0.969907 5:0.145552 6:0.199725 
1 1:0.501996 2:0.515 3:0.940559 4:0.929471 5:0.113757 6:-0.097907 
1 1:0.501996 2:0.52 3:0.877622 4:0.872006 5:0.039862 6:0.069103 
1 1:0.501996 2:0.525 3:0.86014 4:0.896423 5:0.047098 6:-0.0753 
1 1:0.501996 2:0.53 3:0.821678 4:0.801983 5:0.055756 6:0.031117 
1 1:0.501996 2:0.535 3:0.842657 4:0.855715 5:0.041868 6:-0.043293 
1 1:0.501996 2:0.54 3:0.881119 4:0.915435 5:0.180793 6:0.248246 
1 1:0.501996 2:0.545 3:0.881119 4:0.894323 5:0.065108 6:0.251405 
1 1:0.501996 2:0.55 3:0.846154 4:0.856221 5:0.0419 6:0.182898 
1 1:0.501996 2:0.555 3:0.870629 4:0.897706 5:0.058645 6:-0.024191 
1 1:0.501996 2:0.56 3:0.867133 4:0.890824 5:0.101911 6:0.406043 
1 1:0.501996 2:0.565 3:0.856643 4:0.847434 5:0.068164 6:0.105387 
1 1:0.501996 2:0.57 3:0.881119 4:0.868974 5:0.061521 6:0.196127 
1 1:0.501996 2:0.575 3:0.86014 4:0.878927 5:0.120869 6:0.421405 
1 1:0.501996 2:0.58 3:0.916084 4:0.916874 5:0.106777 6:0.452215 
1 1:0.501996 2:0.585 3:0.835664 4:0.868974 5:0.096579 6:0.18743 
1 1:0.501996 2:0.59 3:0.888112 4:0.949689 5:0.100443 6:0.316227 
1 1:0.501996 2:0.595 3:0.821678 4:0.85035 5:0.066468 6:0.367573 
1 1:0.501996 2:0.6 3:0.821678 4:0.834448 5:0.211858 6:0.184489 
1 1:0.501996 2:0.605 3:0.814685 4:0.83888 5:0.083112 6:0.264074 
1 1:0.501996 2:0.61 3:0.842657 4:0.864774 5:0.079856 6:0.256718 
1 1:0.501996 2:0.615 3:0.891608 4:0.904355 5:0.500948 6:0.318867 
1 1:0.501996 2:0.625 3:0.905594 4:0.850428 5:0.072986 6:0.05407 
1 1:0.501996 2:0.63 3:0.804196 4:0.841757 5:0.030406 6:0.177436 
1 1:0.501996 2:0.635 3:0.940559 4:0.954316 5:0.119688 6:0.402508 
1 1:0.501996 2:0.64 3:0.867133 4:0.806843 5:0.03784 6:-0.053473 
1 1:0.501996 2:0.645 3:0.884615 4:0.897939 5:0.067923 6:0.256471 
1 1:0.501996 2:0.65 3:0.926573 4:0.989269 5:0.18037 6:0.602933 
1 1:0.501996 2:0.655 3:0.905594 4:0.926516 5:0.072005 6:0.32682 
1 1:0.501996 2:0.66 3:0.832168 4:0.867846 5:0.331957 6:0.531756 
1 1:0.501996 2:0.665 3:0.863636 4:0.911236 5:0.164956 6:0.331476 
1 1:0.501996 2:0.67 3:0.881119 4:0.865785 5:0.441479 6:0.174923 
1 1:0.501996 2:0.675 3:0.772727 4:0.747123 5:0.034457 6:-0.087737 
1 1:0.501996 2:0.68 3:0.86014 4:0.864502 5:0.054357 6:0.128545 
1 1:0.501996 2:0.69 3:0.846154 4:0.865047 5:0.056735 6:0.378392 
1 1:0.501996 2:0.695 3:0.888112 4:0.851205 5:0.201987 6:0.442901 
1 1:0.501996 2:0.7 3:0.863636 4:0.848523 5:0.143083 6:0.249888 
1 1:0.501996 2:0.705 3:0.84965 4:0.846734 5:0.117135 6:0.300431 
1 1:0.501996 2:0.71 3:0.832168 4:0.807037 5:0.103882 6:0.27839 
1 1:0.501996 2:0.715 3:0.905594 4:0.919557 5:0.117536 6:0.412073 
1 1:0.501996 2:0.72 3:0.881119 4:0.856921 5:0.222007 6:0.396542 
1 1:0.501996 2:0.725 3:0.916084 4:0.917846 5:0.150121 6:0.495426 
1 1:0.501996 2:0.73 3:0.856643 4:0.867807 5:0.127789 6:0.536218 
1 1:0.501996 2:0.735 3:0.870629 4:0.897045 5:0.090326 6:0.308293 
1 1:0.501996 2:0.745 3:0.870629 4:0.87325 5:0.097985 6:0.176233 
1 1:0.501996 2:0.75 3:0.902098 4:0.915241 5:0.107076 6:0.491816 
1 1:0.501996 2:0.755 3:0.902098 4:0.934603 5:0.220657 6:0.63093 
1 1:0.501996 2:0.76 3:0.828671 4:0.837131 5:0.037139 6:0.230703 
1 1:0.501996 2:0.765 3:0.776224 4:0.790941 5:0.035401 6:0.343489 
1 1:0.501996 2:0.77 3:0.916084 4:0.941252 5:0.184668 6:0.483934 
1 1:0.501996 2:0.78 3:0.905594 4:0.906376 5:0.106036 6:0.303934 
1 1:0.501996 2:0.785 3:0.84965 4:0.853227 5:0.066734 6:0.392334 
1 1:0.501996 2:0.79 3:0.839161 4:0.820762 5:0.061445 6:0.368896 
1 1:0.501996 2:0.795 3:0.86014 4:0.819984 5:0.04695 6:-0.016762 
1 1:0.501996 2:0.8 3:0.905594 4:0.88542 5:0.056947 6:0.187043 
1 1:0.501996 2:0.805 3:0.884615 4:0.912714 5:0.174843 6:0.596325 
1 1:0.501996 2:0.81 3:0.835664 4:0.869557 5:0.053015 6:0.512053 
1 1:0.501996 2:0.815 3:0.912587 4:0.907621 5:0.378 6:0.559462 
1 1:0.501996 2:0.825 3:0.867133 4:0.929432 5:0.092675 6:0.507859 
1 1:0.501996 2:0.83 3:0.891608 4:0.894518 5:0.423885 6:0.47373 
1 1:0.501996 2:0.835 3:0.842657 4:0.851011 5:0.042958 6:0.385355 
1 1:0.501996 2:0.84 3:0.902098 4:0.93367 5:0.281949 6:0.741518 
1 1:0.501996 2:0.845 3:0.874126 4:0.88056 5:0.426273 6:0.092256 
1 1:0.501996 2:0.85 3:0.846154 4:0.871073 5:0.054913 6:0.251081 
1 1:0.501996 2:0.855 3:0.909091 4:0.877799 5:0.151014 6:0.548527 
1 1:0.501996 2:0.86 3:0.839161 4:0.857854 5:0.125287 6:0.330448 
1 1:0.501996 2:0.865 3:0.86014 4:0.891602 5:0.184164 6:0.790479 
1 1:0.501996 2:0.87 3:0.863636 4:0.891446 5:0.119598 6:0.524162 
1 1:0.501996 2:0.875 3:0.877622 4:0.832232 5:0.059916 6:0.214515 
1 1:0.501996 2:0.88 3:0.891608 4:0.931104 5:0.087995 6:0.312535 
1 1:0.501996 2:0.89 3:0.821678 4:0.867146 5:0.961782 6:0.92761 
1 1:0.501996 2:0.895 3:0.867133 4:0.899222 5:0.203533 6:1 
1 1:0.501996 2:0.9 3:0.895105 4:0.945295 5:0.592659 6:0.98417 
1 1:0.501996 2:0.905 3:0.863636 4:0.85556 5:0.076197 6:0.46619 
1 1:0.501996 2:0.91 3:0.874126 4:0.881726 5:0.065046 6:0.401769 
1 1:0.501996 2:0.915 3:0.863636 4:0.865591 5:0.320568 6:0.450856 
1 1:0.501996 2:0.92 3:0.814685 4:0.827216 5:0.129767 6:0.676659 
1 1:0.501996 2:0.925 3:0.881119 4:0.882193 5:0.051068 6:0.293562 
1 1:0.501996 2:0.93 3:0.853147 4:0.834759 5:0.095354 6:0.556611 
1 1:0.501996 2:0.935 3:0.916084 4:0.938025 5:0.15402 6:0.675491 
1 1:0.501996 2:0.94 3:0.807692 4:0.823095 5:0.115821 6:0.557534 
1 1:0.501996 2:0.945 3:0.877622 4:0.877333 5:0.133194 6:0.747744 
1 1:0.501996 2:0.95 3:0.821678 4:0.847939 5:0.221808 6:0.67746 
1 1:0.501996 2:0.955 3:0.835664 4:0.801944 5:0.469165 6:0.484865 
1 1:0.501996 2:0.96 3:0.884615 4:0.913453 5:0.34835 6:0.817769 
1 1:0.501996 2:0.965 3:0.807692 4:0.813103 5:0.15387 6:0.609277 
1 1:0.501996 2:0.975 3:0.874126 4:0.868546 5:0.144067 6:0.506972 
1 1:0.501996 2:0.98 3:0.846154 4:0.817496 5:0.077231 6:0.349196 
1 1:0.501996 2:0.985 3:0.825175 4:0.814658 5:0.273519 6:0.622074 
1 1:0.501996 2:0.99 3:0.912587 4:0.92916 5:0.13957 6:0.805088 
1 1:0.501996 2:0.995 3:0.863636 4:0.880093 5:0.285881 6:0.843832 
1 1:0.501996 2:1 3:0.86014 4:0.874378 5:0.207988 6:0.591724 
1 1:0.501996 2:0.005 3:0.905594 4:0.963142 5:0.038108 6:-0.179735 
1 1:0.501996 2:0.035 3:0.870629 4:0.861198 5:0.038606 6:-0.377944 
1 1:0.501996 2:0.04 3:0.881119 4:0.92395 5:0.05801 6:-0.138189 
1 1:0.501996 2:0.055 3:0.975524 4:0.965047 5:0.078324 6:-0.717454 
1 1:0.501996 2:0.06 3:0.902098 4:0.92951 5:0.053638 6:-0.046344 
1 1:0.501996 2:0.065 3:0.874126 4:0.8729 5:0.038619 6:-0.414094 
1 1:0.501996 2:0.075 3:0.895105 4:0.878499 5:0.030078 6:-0.441085 
1 1:0.501996 2:0.09 3:0.923077 4:0.919323 5:0.03654 6:-0.230126 
1 1:0.501996 2:0.095 3:0.874126 4:0.909565 5:0.042168 6:-0.370667 
1 1:0.501996 2:0.1 3:0.863636 4:0.915785 5:0.049069 6:-0.254726 
0.71894596684222378 1:0.501996 2:0.105 3:0.926573 4:0.907582 5:0.027567 6:-0.647172 
1 1:0.501996 2:0.11 3:0.905594 4:0.947123 5:0.040558 6:-0.302225 
1 1:0.501996 2:0.125 3:0.863636 4:0.863103 5:0.062451 6:-0.359729 
1 1:0.501996 2:0.13 3:0.884615 4:0.95797 5:0.04491 6:0.051313 
1 1:0.501996 2:0.135 3:0.839161 4:0.848756 5:0.032956 6:-0.086849 
1 1:0.501996 2:0.14 3:0.877622 4:0.89619 5:0.034574 6:-0.509334 
1 1:0.501996 2:0.145 3:0.916084 4:0.926983 5:0.070802 6:-0.201205 
1 1:0.501996 2:0.15 3:0.961538 4:0.997356 5:0.132693 6:-0.077378 
1 1:0.501996 2:0.155 3:0.93007 4:0.921345 5:0.309374 6:-0.116788 
1 1:0.501996 2:0.17 3:0.912587 4:0.927799 5:0.070876 6:-0.169864 
1 1:0.501996 2:0.175 3:0.867133 4:0.896851 5:0.044173 6:-0.218268 
1 1:0.501996 2:0.18 3:0.940559 4:0.940047 5:0.04782 6:-0.166717 
1 1:0.501996 2:0.185 3:0.909091 4:0.954316 5:0.815937 6:-0.041376 
1 1:0.501996 2:0.19 3:0.909091 4:0.935148 5:0.099685 6:0.041576 
1 1:0.501996 2:0.195 3:0.902098 4:0.892302 5:0.033782 6:-0.227251 
1 1:0.501996 2:0.2 3:0.867133 4:0.905871 5:0.03614 6:-0.166505 
1 1:0.501996 2:0.205 3:0.975524 4:0.970723 5:0.07606 6:-0.254328 
1 1:0.501996 2:0.21 3:0.944056 4:0.938142 5:0.038133 6:-0.394306 
1 1:0.501996 2:0.215 3:0.926573 4:0.962597 5:0.086756 6:0.068798 
1 1:0.501996 2:0.225 3:0.821678 4:0.803499 5:0.374583 6:-0.153894 
1 1:0.501996 2:0.23 3:0.905594 4:0.9264 5:0.031934 6:-0.338533 
1 1:0.501996 2:0.235 3:0.884615 4:0.897434 5:0.037119 6:-0.468708 
1 1:0.501996 2:0.24 3:0.874126 4:0.871345 5:0.04628 6:-0.244469 
1 1:0.501996 2:0.245 3:0.909091 4:0.95486 5:0.032815 6:-0.171273 
1 1:0.501996 2:0.25 3:0.881119 4:0.88402 5:0.396825 6:-0.164425 
1 1:0.501996 2:0.255 3:0.874126 4:0.860731 5:0.039149 6:-0.174596 
1 1:0.501996 2:0.26 3:0.84965 4:0.852644 5:0.037784 6:-0.208988 
1 1:0.501996 2:0.265 3:0.853147 4:0.862286 5:0.02396 6:-0.315155 
1 1:0.501996 2:0.27 3:0.821678 4:0.820451 5:0.041687 6:-0.293114 
1 1:0.501996 2:0.275 3:0.909091 4:0.882659 5:0.037613 6:-0.460918 
1 1:0.501996 2:0.28 3:0.933566 4:0.962636 5:0.079682 6:0.033717 
1 1:0.501996 2:0.29 3:0.856643 4:0.840552 5:0.032714 6:-0.197694 
1 1:0.501996 2:0.295 3:0.877622 4:0.901011 5:0.047432 6:-0.178061 
1 1:0.501996 2:0.3 3:0.898601 4:0.891874 5:0.046526 6:-0.442643 
1 1:0.501996 2:0.305 3:0.811189 4:0.832115 5:0.081935 6:0.122578 
1 1:0.501996 2:0.315 3:0.891608 4:0.906143 5:0.063746 6:-0.19815 
1 1:0.501996 2:0.32 3:0.867133 4:0.879627 5:0.101711 6:0.020897 
1 1:0.501996 2:0.325 3:0.842657 4:0.825894 5:0.025333 6:-0.272407 
1 1:0.501996 2:0.33 3:0.863636 4:0.872162 5:0.038307 6:-0.263156 
1 1:0.501996 2:0.335 3:0.909091 4:0.880521 5:0.033076 6:-0.352261 
1 1:0.501996 2:0.34 3:0.923077 4:0.959759 5:0.052525 6:0.083791 
1 1:0.501996 2:0.345 3:0.923077 4:0.910575 5:0.156758 6:-0.119126 
1 1:0.501996 2:0.35 3:0.916084 4:0.918585 5:0.068103 6:-0.070202 
1 1:0.501996 2:0.355 3:0.884615 4:0.891719 5:0.031682 6:-0.521375 
1 1:0.501996 2:0.36 3:0.940559 4:0.96217 5:0.164537 6:-0.08797 
1 1:0.501996 2:0.365 3:0.916084 4:0.907076 5:0.084363 6:0.092594 
1 1:0.501996 2:0.37 3:0.867133 4:0.8243 5:0.038829 6:-0.265633 
1 1:0.501996 2:0.375 3:0.905594 4:0.932621 5:0.061493 6:0.177201 
1 1:0.501996 2:0.38 3:0.898601 4:0.905599 5:0.057112 6:-0.210457 
1 1:0.501996 2:0.385 3:0.926573 4:0.913375 5:0.272677 6:-0.163738 
1 1:0.501996 2:0.39 3:0.853147 4:0.855715 5:0.085714 6:-0.014642 
1 1:0.501996 2:0.395 3:0.86014 4:0.867613 5:0.081012 6:0.117512 
1 1:0.501996 2:0.4 3:0.877622 4:0.926633 5:0.068494 6:0.07494 
1 1:0.501996 2:0.405 3:0.933566 4:0.987947 5:0.255421 6:0.634372 
1 1:0.501996 2:0.41 3:0.926573 4:0.96388 5:0.043133 6:-0.157348 
1 1:0.501996 2:0.415 3:0.804196 4:0.837869 5:0.056947 6:0.008501 
1 1:0.501996 2:0.42 3:0.909091 4:0.919712 5:0.090184 6:0.146519 
1 1:0.501996 2:0.425 3:0.825175 4:0.877877 5:0.041187 6:0.286684 
1 1:0.501996 2:0.435 3:0.884615 4:0.907387 5:0.100015 6:0.232367 
1 1:0.501996 2:0.44 3:0.891608 4:0.902877 5:0.095362 6:0.320385 
1 1:0.501996 2:0.445 3:0.888112 4:0.927449 5:0.090143 6:0.3144 
1 1:0.501996 2:0.45 3:0.902098 4:0.938064 5:0.069665 6:0.002669 
1 1:0.501996 2:0.455 3:0.828671 4:0.853499 5:0.035869 6:-0.060382 
1 1:0.501996 2:0.46 3:0.828671 4:0.842379 5:0.044158 6:0.186446 
1 1:0.501996 2:0.465 3:0.895105 4:0.944751 5:0.094376 6:0.235138 
1 1:0.501996 2:0.47 3:0.895105 4:0.91112 5:0.048761 6:0.22414 
